{"learner":{"attributes":{"best_iteration":"263","best_score":"10.56155998807235","scikit_learn":"{\"_estimator_type\": \"regressor\"}"},"feature_names":["msu_current","r4ha_msu","cpu_utilization_pct","r4ha_lag_1h","r4ha_lag_2h","msu_lag_1h","msu_rolling_mean_2h","msu_rolling_mean_4h","hour_of_day","day_of_week","is_batch_window","batch_jobs_running","batch_cpu_seconds"],"feature_types":["float","float","float","float","float","float","float","float","int","int","int","int","float"],"gradient_booster":{"model":{"gbtree_model_param":{"num_parallel_tree":"1","num_trees":"314"},"iteration_indptr":[0,1,2,3,4,5,6,7,8,9,10,11,12,13,14,15,16,17,18,19,20,21,22,23,24,25,26,27,28,29,30,31,32,33,34,35,36,37,38,39,40,41,42,43,44,45,46,47,48,49,50,51,52,53,54,55,56,57,58,59,60,61,62,63,64,65,66,67,68,69,70,71,72,73,74,75,76,77,78,79,80,81,82,83,84,85,86,87,88,89,90,91,92,93,94,95,96,97,98,99,100,101,102,103,104,105,106,107,108,109,110,111,112,113,114,115,116,117,118,119,120,121,122,123,124,125,126,127,128,129,130,131,132,133,134,135,136,137,138,139,140,141,142,143,144,145,146,147,148,149,150,151,152,153,154,155,156,157,158,159,160,161,162,163,164,165,166,167,168,169,170,171,172,173,174,175,176,177,178,179,180,181,182,183,184,185,186,187,188,189,190,191,192,193,194,195,196,197,198,199,200,201,202,203,204,205,206,207,208,209,210,211,212,213,214,215,216,217,218,219,220,221,222,223,224,225,226,227,228,229,230,231,232,233,234,235,236,237,238,239,240,241,242,243,244,245,246,247,248,249,250,251,252,253,254,255,256,257,258,259,260,261,262,263,264,265,266,267,268,269,270,271,272,273,274,275,276,277,278,279,280,281,282,283,284,285,286,287,288,289,290,291,292,293,294,295,296,297,298,299,300,301,302,303,304,305,306,307,308,309,310,311,312,313,314],"tree_info":[0,0,0,0,0,0,0,0,0,0,0,0,0,0,0,0,0,0,0,0,0,0,0,0,0,0,0,0,0,0,0,0,0,0,0,0,0,0,0,0,0,0,0,0,0,0,0,0,0,0,0,0,0,0,0,0,0,0,0,0,0,0,0,0,0,0,0,0,0,0,0,0,0,0,0,0,0,0,0,0,0,0,0,0,0,0,0,0,0,0,0,0,0,0,0,0,0,0,0,0,0,0,0,0,0,0,0,0,0,0,0,0,0,0,0,0,0,0,0,0,0,0,0,0,0,0,0,0,0,0,0,0,0,0,0,0,0,0,0,0,0,0,0,0,0,0,0,0,0,0,0,0,0,0,0,0,0,0,0,0,0,0,0,0,0,0,0,0,0,0,0,0,0,0,0,0,0,0,0,0,0,0,0,0,0,0,0,0,0,0,0,0,0,0,0,0,0,0,0,0,0,0,0,0,0,0,0,0,0,0,0,0,0,0,0,0,0,0,0,0,0,0,0,0,0,0,0,0,0,0,0,0,0,0,0,0,0,0,0,0,0,0,0,0,0,0,0,0,0,0,0,0,0,0,0,0,0,0,0,0,0,0,0,0,0,0,0,0,0,0,0,0,0,0,0,0,0,0,0,0,0,0,0,0,0,0,0,0,0,0,0,0,0,0,0,0,0,0,0,0,0,0,0,0,0,0,0,0,0,0,0,0,0,0],"trees":[{"base_weights":[-9.563037E-2,-7.511439E1,1.11563705E2,-1.4853424E2,-4.2967342E1,9.5653984E1,2.8147208E2,-1.9600453E2,-1.2174019E2,-6.8175125E1,-1.0101079E1,5.6698647E1,1.2839668E2,2.3415654E2,3.391633E2,-2.1557074E2,-1.7797603E2,-1.4709529E2,-1.05321266E2,-9.226809E1,-5.45923E1,-4.8897316E1,4.494974E0,2.7156559E1,7.7292694E1,9.633595E1,1.4485428E2,2.0082372E2,2.7085318E2,2.614472E1,3.5012503E2,-2.2951235E1,-2.0629461E1,-1.8471822E2,-1.468607E2,-1.5984146E2,-1.2990953E2,-1.0865951E2,-5.3898754E1,-8.224004E1,-1.2703337E2,-6.1921116E1,-2.2930553E1,-7.425553E1,-2.2902325E1,-1.1942859E1,3.384027E1,-1.5199587E1,4.4899082E1,5.334824E1,9.843679E1,8.602799E1,1.3533421E2,1.1188375E2,1.6032796E2,1.8028676E2,2.3574102E1,2.344901E1,2.9291197E1,3.3537228E1,3.8421917E1,-1.924454E1,-1.770181E1,-1.4962091E1,-9.188889E0,-1.668019E1,-1.4845525E1,-1.18514805E1,-1.4714955E1,-1.223326E1,-9.921698E0,-6.8444786E0,-3.1041474E0,-9.186107E0,-7.0400844E0,-1.31725235E1,-1.1193133E1,-7.190052E0,-5.018279E0,-3.2756486E0,-2.7627575E-1,-4.402123E0,-8.376841E0,-3.0398755E0,1.3319896E0,-2.5209281E0,1.9051018E0,2.168628E0,4.970286E0,-3.1936662E0,2.817082E-1,3.2832062E0,7.1381326E0,3.7598836E0,6.4209504E0,9.048368E0,1.3602086E1,5.6624465E0,9.851046E0,1.206549E1,1.7500109E1,9.254413E0,1.2367071E1,1.4836722E1,1.8218538E1,1.2001427E1,1.899953E1],"categories":[],"categories_nodes":[],"categories_segments":[],"categories_sizes":[],"default_left":[0,0,0,0,0,0,0,0,0,0,0,0,0,0,0,0,0,0,0,0,0,0,0,0,0,0,0,0,0,0,0,0,0,0,0,0,0,0,0,0,0,0,0,0,0,0,0,0,0,0,0,0,0,0,0,0,0,0,0,0,0,0,0,0,0,0,0,0,0,0,0,0,0,0,0,0,0,0,0,0,0,0,0,0,0,0,0,0,0,0,0,0,0,0,0,0,0,0,0,0,0,0,0,0,0,0,0],"id":0,"left_children":[1,3,5,7,9,11,13,15,17,19,21,23,25,27,29,31,33,35,37,39,41,43,45,47,49,51,53,55,57,-1,59,-1,-1,61,63,65,67,69,71,73,75,77,79,81,83,85,87,89,91,93,95,97,99,101,103,105,-1,-1,-1,-1,-1,-1,-1,-1,-1,-1,-1,-1,-1,-1,-1,-1,-1,-1,-1,-1,-1,-1,-1,-1,-1,-1,-1,-1,-1,-1,-1,-1,-1,-1,-1,-1,-1,-1,-1,-1,-1,-1,-1,-1,-1,-1,-1,-1,-1,-1,-1],"loss_changes":[1.763849E8,2.972072E7,2.2847464E7,4.85392E6,7.257664E6,9.863824E6,1.896824E6,4.49096E5,1.006092E6,1.617456E6,2.1543225E6,2.149162E6,2.204232E6,4.36064E5,1.84416E5,3.7704E4,1.24932E5,1.89934E5,2.50416E5,6.12182E5,7.34845E5,6.8384375E5,1.3341679E6,1.0933736E6,1.049322E6,5.62782E5,1.398284E6,1.10916E5,8.2061E4,0E0,1.2412E4,0E0,0E0,1.122E3,6.5595E3,1.8636E4,6.4059E4,1.68722E5,2.8786344E4,1.51731E5,1.34325E4,2.98136E5,1.1841006E5,1.475855E5,1.4024834E5,7.294993E5,1.9035925E5,1.297578E5,3.2519688E5,1.65042E5,3.17966E5,4.10249E5,1.51794E5,1.91413E5,4.66256E5,5.8504E4,0E0,0E0,0E0,0E0,0E0,0E0,0E0,0E0,0E0,0E0,0E0,0E0,0E0,0E0,0E0,0E0,0E0,0E0,0E0,0E0,0E0,0E0,0E0,0E0,0E0,0E0,0E0,0E0,0E0,0E0,0E0,0E0,0E0,0E0,0E0,0E0,0E0,0E0,0E0,0E0,0E0,0E0,0E0,0E0,0E0,0E0,0E0,0E0,0E0,0E0,0E0],"parents":[2147483647,0,0,1,1,2,2,3,3,4,4,5,5,6,6,7,7,8,8,9,9,10,10,11,11,12,12,13,13,14,14,15,15,16,16,17,17,18,18,19,19,20,20,21,21,22,22,23,23,24,24,25,25,26,26,27,27,28,28,30,30,33,33,34,34,35,35,36,36,37,37,38,38,39,39,40,40,41,41,42,42,43,43,44,44,45,45,46,46,47,47,48,48,49,49,50,50,51,51,52,52,53,53,54,54,55,55],"right_children":[2,4,6,8,10,12,14,16,18,20,22,24,26,28,30,32,34,36,38,40,42,44,46,48,50,52,54,56,58,-1,60,-1,-1,62,64,66,68,70,72,74,76,78,80,82,84,86,88,90,92,94,96,98,100,102,104,106,-1,-1,-1,-1,-1,-1,-1,-1,-1,-1,-1,-1,-1,-1,-1,-1,-1,-1,-1,-1,-1,-1,-1,-1,-1,-1,-1,-1,-1,-1,-1,-1,-1,-1,-1,-1,-1,-1,-1,-1,-1,-1,-1,-1,-1,-1,-1,-1,-1,-1,-1],"split_conditions":[5.4443E2,4.2615E2,7.8128E2,3.6038E2,4.8915E2,6.4405E2,8.7341E2,3.3125E2,4.0754E2,4.4282E2,4.347E2,5.7761E2,6.3942E2,7.7302E2,7.5197E2,3.0799E2,4.0133E2,3.8507E2,5.3554E2,5.5692E2,5.3388E2,5.488E2,5.4651E2,5.4651E2,5.665E2,6.9601E2,6.134E2,8.0359E2,7.2659E2,2.614472E1,9.4935E2,-2.2951235E1,-2.0629461E1,3.4001E2,4.895E2,3.9372E2,7E0,4.0603E2,5.7761E2,4.5367E2,3.8152E2,4.6198E2,5.8988E2,6.2259E2,1E1,5.725E2,5.9201E2,5.1053E2,6.4106E2,5.3258E2,7.103E2,5.171E2,7.4131E2,5.7562E2,7.2775E2,5.051E1,2.3574102E1,2.344901E1,2.9291197E1,3.3537228E1,3.8421917E1,-1.924454E1,-1.770181E1,-1.4962091E1,-9.188889E0,-1.668019E1,-1.4845525E1,-1.18514805E1,-1.4714955E1,-1.223326E1,-9.921698E0,-6.8444786E0,-3.1041474E0,-9.186107E0,-7.0400844E0,-1.31725235E1,-1.1193133E1,-7.190052E0,-5.018279E0,-3.2756486E0,-2.7627575E-1,-4.402123E0,-8.376841E0,-3.0398755E0,1.3319896E0,-2.5209281E0,1.9051018E0,2.168628E0,4.970286E0,-3.1936662E0,2.817082E-1,3.2832062E0,7.1381326E0,3.7598836E0,6.4209504E0,9.048368E0,1.3602086E1,5.6624465E0,9.851046E0,1.206549E1,1.7500109E1,9.254413E0,1.2367071E1,1.4836722E1,1.8218538E1,1.2001427E1,1.899953E1],"split_indices":[5,1,5,1,1,5,5,1,0,0,0,0,0,0,0,1,0,5,0,4,0,1,1,1,1,1,1,1,1,0,5,0,0,0,0,1,9,5,0,1,5,1,0,4,8,0,1,1,1,1,0,0,1,1,0,2,0,0,0,0,0,0,0,0,0,0,0,0,0,0,0,0,0,0,0,0,0,0,0,0,0,0,0,0,0,0,0,0,0,0,0,0,0,0,0,0,0,0,0,0,0,0,0,0,0,0,0],"split_type":[0,0,0,0,0,0,0,0,0,0,0,0,0,0,0,0,0,0,0,0,0,0,0,0,0,0,0,0,0,0,0,0,0,0,0,0,0,0,0,0,0,0,0,0,0,0,0,0,0,0,0,0,0,0,0,0,0,0,0,0,0,0,0,0,0,0,0,0,0,0,0,0,0,0,0,0,0,0,0,0,0,0,0,0,0,0,0,0,0,0,0,0,0,0,0,0,0,0,0,0,0,0,0,0,0,0,0],"sum_hessian":[2.1055E4,1.2594E4,8.461E3,3.834E3,8.76E3,7.738E3,7.23E2,1.381E3,2.453E3,4.957E3,3.803E3,3.535E3,4.203E3,4E2,3.23E2,6.57E2,7.24E2,9.61E2,1.492E3,1.785E3,3.172E3,1.039E3,2.764E3,1.453E3,2.082E3,1.428E3,2.775E3,2.13E2,1.87E2,4.3E1,2.8E2,2.53E2,4.04E2,5.91E2,1.33E2,5.47E2,4.14E2,1.4E3,9.2E1,1.388E3,3.97E2,2.575E3,5.97E2,5.25E2,5.14E2,1.772E3,9.92E2,4.29E2,1.024E3,9.78E2,1.104E3,1.132E3,2.96E2,8.89E2,1.886E3,1.38E2,7.5E1,7.5E1,1.12E2,2.03E2,7.7E1,2.83E2,3.08E2,1.25E2,8E0,3.31E2,2.16E2,2.54E2,1.6E2,5.67E2,8.33E2,5.5E1,3.7E1,7.62E2,6.26E2,2.97E2,1E2,1.389E3,1.186E3,4.01E2,1.96E2,1.27E2,3.98E2,4.26E2,8.8E1,1.241E3,5.31E2,5.63E2,4.29E2,2.22E2,2.07E2,7.05E2,3.19E2,4.01E2,5.77E2,9.14E2,1.9E2,3.39E2,7.93E2,2.19E2,7.7E1,3.4E2,5.49E2,1.224E3,6.62E2,2.1E1,1.17E2],"tree_param":{"num_deleted":"0","num_feature":"13","num_nodes":"107","size_leaf_vector":"1"}},{"base_weights":[5.335409E-1,-6.469385E1,1.0526592E2,-1.21305984E2,-2.9637213E1,8.986069E1,2.5409221E2,-1.691143E2,-9.658922E1,-4.92882E1,3.3807683E0,6.0086746E1,1.2037001E2,2.1217358E2,3.0507312E2,-1.9191354E2,-1.5212138E2,-1.2274119E2,-8.566696E1,-6.3442368E1,-2.9430136E1,-3.2189663E1,1.8355364E1,3.2970474E1,7.439105E1,8.654721E1,1.3247403E2,1.8526463E2,2.440552E2,2.550296E1,3.1747314E2,-2.0412806E1,-1.8192827E1,-1.5749828E2,-1.2718012E2,-1.3506496E2,-1.0651436E2,-2.8317694E1,-8.780011E1,-5.588969E1,-1.0130728E2,-3.7594193E1,-3.2365634E0,-5.186075E1,-8.572691E0,5.0919347E0,4.0967625E1,1.219535E1,5.7286385E1,4.8547295E1,9.044467E1,7.562453E1,1.1987378E2,1.1366366E2,1.5025774E2,1.519935E2,2.0166724E2,2.0657845E1,2.5779257E1,2.9505249E1,3.3867695E1,-1.6433548E1,-1.4684979E1,-8.070734E0,-1.3219373E1,-1.43604E1,-1.2508647E1,-1.1075297E1,-6.431916E0,-4.0313187E0,-4.9788466E-1,-1.0325725E1,-8.019256E0,-6.4605594E0,-4.222823E0,-1.1214053E1,-8.804927E0,-4.9195743E0,-2.686243E0,-2.6860406E0,2.780316E-1,-2.5801933E0,-6.157804E0,-1.7452414E0,1.1833069E0,-9.4006413E-1,2.3481677E0,3.777924E0,9.372954E0,-2.1890998E0,2.2956953E0,4.949577E0,9.677228E0,3.2318914E0,5.7747054E0,8.344691E0,1.205465E1,5.563603E0,9.039836E0,1.0889986E1,1.6659395E1,9.32109E0,1.2280917E1,1.423627E1,1.7917784E1,1.1154414E1,1.6258856E1,1.736362E1,2.1605902E1],"categories":[],"categories_nodes":[],"categories_segments":[],"categories_sizes":[],"default_left":[0,0,0,0,0,0,0,0,0,0,0,0,0,0,0,0,0,0,0,0,0,0,0,0,0,0,0,0,0,0,0,0,0,0,0,0,0,0,0,0,0,0,0,0,0,0,0,0,0,0,0,0,0,0,0,0,0,0,0,0,0,0,0,0,0,0,0,0,0,0,0,0,0,0,0,0,0,0,0,0,0,0,0,0,0,0,0,0,0,0,0,0,0,0,0,0,0,0,0,0,0,0,0,0,0,0,0,0,0],"id":1,"left_children":[1,3,5,7,9,11,13,15,17,19,21,23,25,27,29,31,33,35,37,39,41,43,45,47,49,51,53,55,57,-1,59,-1,-1,61,63,65,67,69,71,73,75,77,79,81,83,85,87,89,91,93,95,97,99,101,103,105,107,-1,-1,-1,-1,-1,-1,-1,-1,-1,-1,-1,-1,-1,-1,-1,-1,-1,-1,-1,-1,-1,-1,-1,-1,-1,-1,-1,-1,-1,-1,-1,-1,-1,-1,-1,-1,-1,-1,-1,-1,-1,-1,-1,-1,-1,-1,-1,-1,-1,-1,-1,-1],"loss_changes":[1.448944E8,2.5935516E7,1.8639744E7,5.889616E6,5.238223E6,6.6948E6,1.565788E6,6.30168E5,9.31214E5,1.420641E6,1.6054724E6,1.446654E6,1.479928E6,3.16778E5,1.31198E5,5.1004E4,1.11364E5,1.79365E5,2.82418E5,8.39111E5,4.5066125E5,4.144117E5,6.359088E5,6.51969E5,1.009991E6,3.414625E5,8.7974E5,9.64685E4,4.4516E4,0E0,2.837E4,0E0,0E0,3.4226E4,3.1016E4,2.8619E4,6.8512E4,2.3591438E4,2.55694E5,2.907735E5,6.04835E4,1.987505E5,7.143227E4,1.2172125E5,7.395447E4,3.5681884E5,1.28334375E5,2.5654561E5,1.78229E5,1.383145E5,3.07362E5,2.0993925E5,1.028285E5,2.33006E5,2.88408E5,1.6550375E4,2.4168E4,0E0,0E0,0E0,0E0,0E0,0E0,0E0,0E0,0E0,0E0,0E0,0E0,0E0,0E0,0E0,0E0,0E0,0E0,0E0,0E0,0E0,0E0,0E0,0E0,0E0,0E0,0E0,0E0,0E0,0E0,0E0,0E0,0E0,0E0,0E0,0E0,0E0,0E0,0E0,0E0,0E0,0E0,0E0,0E0,0E0,0E0,0E0,0E0,0E0,0E0,0E0,0E0],"parents":[2147483647,0,0,1,1,2,2,3,3,4,4,5,5,6,6,7,7,8,8,9,9,10,10,11,11,12,12,13,13,14,14,15,15,16,16,17,17,18,18,19,19,20,20,21,21,22,22,23,23,24,24,25,25,26,26,27,27,28,28,30,30,33,33,34,34,35,35,36,36,37,37,38,38,39,39,40,40,41,41,42,42,43,43,44,44,45,45,46,46,47,47,48,48,49,49,50,50,51,51,52,52,53,53,54,54,55,55,56,56],"right_children":[2,4,6,8,10,12,14,16,18,20,22,24,26,28,30,32,34,36,38,40,42,44,46,48,50,52,54,56,58,-1,60,-1,-1,62,64,66,68,70,72,74,76,78,80,82,84,86,88,90,92,94,96,98,100,102,104,106,108,-1,-1,-1,-1,-1,-1,-1,-1,-1,-1,-1,-1,-1,-1,-1,-1,-1,-1,-1,-1,-1,-1,-1,-1,-1,-1,-1,-1,-1,-1,-1,-1,-1,-1,-1,-1,-1,-1,-1,-1,-1,-1,-1,-1,-1,-1,-1,-1,-1,-1,-1,-1],"split_conditions":[5.5628E2,4.4222E2,7.8128E2,3.721E2,5.0914E2,6.5802E2,8.7341E2,3.3446E2,3.8904E2,4.072E1,3.654E1,4.713E1,5.119E1,6.579E1,6.652E1,3.1302E2,3.6E1,3.432E1,2E0,5.907E2,4.849E1,5.6789E2,5.712E2,6.2102E2,5.6339E2,6.9601E2,6.4703E2,7.2064E2,7.1188E2,2.550296E1,8.4531E2,-2.0412806E1,-1.8192827E1,3.6141E2,1E0,3.5066E2,4.424E1,4.2063E2,4.1266E2,4.7221E2,4.8209E2,4.7432E2,1.7E1,6.4119E2,6.0544E2,4.752E1,5.694E1,5.1988E2,6.7734E2,5.2926E2,6.5236E2,4.383E1,7.6545E2,5.9055E2,6.384E1,5.334E1,5.457E1,2.0657845E1,2.5779257E1,2.9505249E1,3.3867695E1,-1.6433548E1,-1.4684979E1,-8.070734E0,-1.3219373E1,-1.43604E1,-1.2508647E1,-1.1075297E1,-6.431916E0,-4.0313187E0,-4.9788466E-1,-1.0325725E1,-8.019256E0,-6.4605594E0,-4.222823E0,-1.1214053E1,-8.804927E0,-4.9195743E0,-2.686243E0,-2.6860406E0,2.780316E-1,-2.5801933E0,-6.157804E0,-1.7452414E0,1.1833069E0,-9.4006413E-1,2.3481677E0,3.777924E0,9.372954E0,-2.1890998E0,2.2956953E0,4.949577E0,9.677228E0,3.2318914E0,5.7747054E0,8.344691E0,1.205465E1,5.563603E0,9.039836E0,1.0889986E1,1.6659395E1,9.32109E0,1.2280917E1,1.423627E1,1.7917784E1,1.1154414E1,1.6258856E1,1.736362E1,2.1605902E1],"split_indices":[5,1,5,1,1,5,5,1,5,2,2,2,2,2,2,1,2,2,8,4,2,1,1,1,1,1,1,1,1,0,1,0,0,5,8,5,2,1,1,1,1,1,11,4,1,2,2,1,1,1,1,2,1,1,2,2,2,0,0,0,0,0,0,0,0,0,0,0,0,0,0,0,0,0,0,0,0,0,0,0,0,0,0,0,0,0,0,0,0,0,0,0,0,0,0,0,0,0,0,0,0,0,0,0,0,0,0,0,0],"split_type":[0,0,0,0,0,0,0,0,0,0,0,0,0,0,0,0,0,0,0,0,0,0,0,0,0,0,0,0,0,0,0,0,0,0,0,0,0,0,0,0,0,0,0,0,0,0,0,0,0,0,0,0,0,0,0,0,0,0,0,0,0,0,0,0,0,0,0,0,0,0,0,0,0,0,0,0,0,0,0,0,0,0,0,0,0,0,0,0,0,0,0,0,0,0,0,0,0,0,0,0,0,0,0,0,0,0,0,0,0],"sum_hessian":[2.1208E4,1.3069E4,8.139E3,4.997E3,8.072E3,7.377E3,7.62E2,1.701E3,3.296E3,5.06E3,3.012E3,3.735E3,3.642E3,4.21E2,3.41E2,7.22E2,9.79E2,9.68E2,2.328E3,2.953E3,2.107E3,8.92E2,2.12E3,1.291E3,2.444E3,9.62E2,2.68E3,2.32E2,1.89E2,7.2E1,2.69E2,3.16E2,4.06E2,8.01E2,1.78E2,5.46E2,4.22E2,8.4E1,2.244E3,2.464E3,4.89E2,1.606E3,5.01E2,4.86E2,4.06E2,1.337E3,7.83E2,6.97E2,5.94E2,9.38E2,1.506E3,7.27E2,2.35E2,1.306E3,1.374E3,8E1,1.52E2,5.5E1,1.34E2,1.38E2,1.31E2,4.79E2,3.22E2,1.9E1,1.59E2,2.87E2,2.59E2,3.82E2,4E1,5.5E1,2.9E1,7.36E2,1.508E3,1.502E3,9.62E2,2.65E2,2.24E2,7.7E2,8.36E2,1.01E2,4E2,1.33E2,3.53E2,2.83E2,1.23E2,7.48E2,5.89E2,7.4E2,4.3E1,1.67E2,5.3E2,4.98E2,9.6E1,3.41E2,5.97E2,1.225E3,2.81E2,3.11E2,4.16E2,1.93E2,4.2E1,4.07E2,8.99E2,1.084E3,2.9E2,1.9E1,6.1E1,5.6E1,9.6E1],"tree_param":{"num_deleted":"0","num_feature":"13","num_nodes":"109","size_leaf_vector":"1"}},{"base_weights":[1.5481769E-1,-6.458935E1,9.149642E1,-1.2370348E2,-3.693262E1,6.73207E1,1.7859288E2,-1.5887599E2,-1.0462672E2,-5.5922943E1,-1.2236617E1,4.096266E1,9.44172E1,1.495712E2,2.6324503E2,-1.7716206E2,-1.4477206E2,-1.209642E2,-9.291496E1,-6.929737E1,-4.3297195E1,-2.7394886E1,-2.7310407E0,2.8059107E1,5.6544052E1,8.365417E1,1.0941817E2,1.4032045E2,1.7874594E2,2.3897426E2,3.0573996E1,-1.8961515E1,-1.681736E1,-1.5064711E2,-1.2547898E2,-1.289411E2,-9.443298E1,-9.8992645E1,-6.938498E1,-7.717844E1,-6.3275024E1,-4.7888813E1,-2.7435282E1,1.111729E0,-3.1873484E1,-1.3333559E1,1.1948699E1,1.965236E1,3.488126E1,5.5087753E1,1.0579684E1,8.168927E1,1.357345E1,1.0736683E2,1.5691434E1,1.31491E2,1.478308E1,1.6733536E1,1.8897024E1,2.2064863E1,2.5611216E1,-1.5309627E1,-1.329351E1,-1.1048693E1,-1.3317786E1,-1.412119E1,-1.243775E1,-1.0062997E1,-8.7584095E0,-9.423283E0,-1.1194763E1,-7.591874E0,-5.754199E0,-7.8872147E0,-5.9307394E0,-6.6269336E0,-5.379462E0,-5.2140594E0,-3.4784894E0,-3.4172695E0,-1.0756522E0,-8.220447E-1,6.5344566E-1,-3.7811856E0,-1.0624698E0,-2.003671E0,7.4267554E-1,2.727145E0,5.5249804E-1,1.0127691E0,3.0163038E0,2.1991782E0,4.307659E0,4.745107E0,6.0754237E0,7.5089517E0,8.930314E0,1.1516364E1,1.0228114E1,1.297996E1,1.5997695E1],"categories":[],"categories_nodes":[],"categories_segments":[],"categories_sizes":[],"default_left":[0,0,0,0,0,0,0,0,0,0,0,0,0,0,0,0,0,0,0,0,0,0,0,0,0,0,0,0,0,0,0,0,0,0,0,0,0,0,0,0,0,0,0,0,0,0,0,0,0,0,0,0,0,0,0,0,0,0,0,0,0,0,0,0,0,0,0,0,0,0,0,0,0,0,0,0,0,0,0,0,0,0,0,0,0,0,0,0,0,0,0,0,0,0,0,0,0,0,0,0,0],"id":2,"left_children":[1,3,5,7,9,11,13,15,17,19,21,23,25,27,29,31,33,35,37,39,41,43,45,47,49,51,53,55,57,59,-1,-1,-1,61,63,65,67,69,71,73,75,77,79,81,83,85,87,89,91,93,-1,95,-1,97,-1,99,-1,-1,-1,-1,-1,-1,-1,-1,-1,-1,-1,-1,-1,-1,-1,-1,-1,-1,-1,-1,-1,-1,-1,-1,-1,-1,-1,-1,-1,-1,-1,-1,-1,-1,-1,-1,-1,-1,-1,-1,-1,-1,-1,-1,-1],"loss_changes":[1.24521736E8,2.0140696E7,1.837844E7,2.61828E6,3.936908E6,4.879892E6,4.621032E6,3.29972E5,4.76468E5,7.98408E5,5.259877E5,6.956645E5,5.35096E5,3.5678E5,4.2504E5,3.479E4,6.9934E4,2.12348E5,2.06053E5,1.04409E5,1.766795E5,1.7966975E5,3.495762E5,1.08220625E5,1.067665E5,1.90178E5,1.20016E5,5.2084E4,7.658E3,4.1428E4,0E0,0E0,0E0,5.473E3,7.07575E3,2.7938E4,1.73575E3,6.2255E4,1.9528375E4,2.5365E4,3.3639E4,1.037015E5,6.154475E4,9.76987E3,1.5303212E5,1.816141E5,9.256619E4,8.508497E4,1.09644625E5,6.3184E4,0E0,8.8651E4,0E0,4.1731E4,0E0,3.538E3,0E0,0E0,0E0,0E0,0E0,0E0,0E0,0E0,0E0,0E0,0E0,0E0,0E0,0E0,0E0,0E0,0E0,0E0,0E0,0E0,0E0,0E0,0E0,0E0,0E0,0E0,0E0,0E0,0E0,0E0,0E0,0E0,0E0,0E0,0E0,0E0,0E0,0E0,0E0,0E0,0E0,0E0,0E0,0E0,0E0],"parents":[2147483647,0,0,1,1,2,2,3,3,4,4,5,5,6,6,7,7,8,8,9,9,10,10,11,11,12,12,13,13,14,14,15,15,16,16,17,17,18,18,19,19,20,20,21,21,22,22,23,23,24,24,25,25,26,26,27,27,28,28,29,29,33,33,34,34,35,35,36,36,37,37,38,38,39,39,40,40,41,41,42,42,43,43,44,44,45,45,46,46,47,47,48,48,49,49,51,51,53,53,55,55],"right_children":[2,4,6,8,10,12,14,16,18,20,22,24,26,28,30,32,34,36,38,40,42,44,46,48,50,52,54,56,58,60,-1,-1,-1,62,64,66,68,70,72,74,76,78,80,82,84,86,88,90,92,94,-1,96,-1,98,-1,100,-1,-1,-1,-1,-1,-1,-1,-1,-1,-1,-1,-1,-1,-1,-1,-1,-1,-1,-1,-1,-1,-1,-1,-1,-1,-1,-1,-1,-1,-1,-1,-1,-1,-1,-1,-1,-1,-1,-1,-1,-1,-1,-1,-1,-1],"split_conditions":[5.3502E2,4.1687E2,7.0688E2,3.6038E2,4.8101E2,6.2819E2,8.0702E2,3.257E2,3.7878E2,4.5673E2,4.8798E2,5.8718E2,6.7224E2,7.5348E2,9.0201E2,2.9837E2,3.6307E2,4.5743E2,4.7049E2,4.3617E2,4.9114E2,1E0,5.3072E2,5.5209E2,7.811E2,7.811E2,7.6545E2,7.2431E2,7.7044E2,8.5789E2,3.0573996E1,-1.8961515E1,-1.681736E1,2.2E1,7E0,3.3819E2,4.86E2,7E0,5.2474E2,1.6582E2,1.7E1,1.7E1,1.1248E2,5.435E2,1.7E1,1.8E1,1E0,5.196E1,4.033E1,6.0559E2,1.0579684E1,6.5332E2,1.357345E1,5E0,1.5691434E1,7.811E2,1.478308E1,1.6733536E1,1.8897024E1,2.2064863E1,2.5611216E1,-1.5309627E1,-1.329351E1,-1.1048693E1,-1.3317786E1,-1.412119E1,-1.243775E1,-1.0062997E1,-8.7584095E0,-9.423283E0,-1.1194763E1,-7.591874E0,-5.754199E0,-7.8872147E0,-5.9307394E0,-6.6269336E0,-5.379462E0,-5.2140594E0,-3.4784894E0,-3.4172695E0,-1.0756522E0,-8.220447E-1,6.5344566E-1,-3.7811856E0,-1.0624698E0,-2.003671E0,7.4267554E-1,2.727145E0,5.5249804E-1,1.0127691E0,3.0163038E0,2.1991782E0,4.307659E0,4.745107E0,6.0754237E0,7.5089517E0,8.930314E0,1.1516364E1,1.0228114E1,1.297996E1,1.5997695E1],"split_indices":[6,6,6,1,1,6,6,6,6,6,6,6,6,6,6,6,6,1,1,6,6,8,1,1,4,4,4,6,6,6,0,0,0,8,9,6,1,9,1,12,8,8,12,1,8,8,8,2,2,6,0,6,0,8,0,3,0,0,0,0,0,0,0,0,0,0,0,0,0,0,0,0,0,0,0,0,0,0,0,0,0,0,0,0,0,0,0,0,0,0,0,0,0,0,0,0,0,0,0,0,0],"split_type":[0,0,0,0,0,0,0,0,0,0,0,0,0,0,0,0,0,0,0,0,0,0,0,0,0,0,0,0,0,0,0,0,0,0,0,0,0,0,0,0,0,0,0,0,0,0,0,0,0,0,0,0,0,0,0,0,0,0,0,0,0,0,0,0,0,0,0,0,0,0,0,0,0,0,0,0,0,0,0,0,0,0,0,0,0,0,0,0,0,0,0,0,0,0,0,0,0,0,0,0,0],"sum_hessian":[2.1054E4,1.2321E4,8.733E3,3.926E3,8.395E3,6.837E3,1.896E3,1.378E3,2.548E3,4.745E3,3.65E3,3.467E3,3.37E3,1.414E3,4.82E2,5.95E2,7.83E2,1.06E3,1.488E3,2.302E3,2.443E3,1.406E3,2.244E3,1.898E3,1.569E3,1.966E3,1.404E3,1.078E3,3.36E2,3.11E2,1.71E2,2.41E2,3.54E2,5.95E2,1.88E2,8.12E2,2.48E2,1.18E3,3.08E2,9.92E2,1.31E3,1.893E3,5.5E2,1.91E2,1.215E3,1.303E3,9.41E2,8.52E2,1.046E3,1.526E3,4.3E1,1.897E3,6.9E1,1.349E3,5.5E1,5.04E2,5.74E2,1.67E2,1.69E2,1.57E2,1.54E2,5.16E2,7.9E1,6.9E1,1.19E2,2.12E2,6E2,1.23E2,1.25E2,8.69E2,3.11E2,1.95E2,1.13E2,9.03E2,8.9E1,9.91E2,3.19E2,1.427E3,4.66E2,3.91E2,1.59E2,7E1,1.21E2,9.49E2,2.66E2,9.85E2,3.18E2,2.77E2,6.64E2,4.48E2,4.04E2,4.08E2,6.38E2,6.54E2,8.72E2,1.022E3,8.75E2,5.24E2,8.25E2,4.81E2,2.3E1],"tree_param":{"num_deleted":"0","num_feature":"13","num_nodes":"101","size_leaf_vector":"1"}},{"base_weights":[2.4061604E-1,-5.6878845E1,8.361637E1,-1.0725012E2,-3.0134842E1,5.953818E1,1.5299124E2,-1.3601624E2,-8.691245E1,-4.6879356E1,-8.021799E0,3.421358E1,7.914637E1,1.2957584E2,2.3578648E2,-1.4539801E2,-1.07099495E2,-1.0422359E2,-7.775904E1,-5.5590218E1,-3.2289326E1,-2.0300255E1,1.308879E0,2.480429E1,4.4843945E1,6.802804E1,9.08759E1,1.21119576E2,1.5614578E2,2.067224E1,2.623957E2,-1.6299199E2,-1.3703383E2,-1.1587798E1,-9.294299E0,-1.12563194E2,-9.213782E1,-8.227053E1,-5.7298187E1,-6.301131E1,-4.8705124E1,-3.72908E1,-1.7660841E1,3.1988897E0,-2.4676886E1,-7.656638E0,1.408897E1,3.4878445E1,1.9396517E1,4.3931095E1,8.490375E0,6.612157E1,1.1478394E2,8.9426056E1,1.3544489E1,1.09948654E2,1.2765835E2,1.46442995E1,1.7012833E1,2.4766073E1,2.8956293E1,-1.7410364E1,-1.5637748E1,-1.4763168E1,-1.3326732E1,-1.1420339E1,-8.896652E0,-5.456265E0,-9.416351E0,-9.009701E0,-7.4954925E0,-6.523839E0,-4.998011E0,-6.8741546E0,-5.7830024E0,-5.263636E0,-3.607303E0,-4.3869514E0,-3.260555E0,-3.1346703E-1,-3.3823948E0,-3.0853227E-1,1.3523428E0,-2.8877292E0,1.93008E-1,-1.4657652E0,6.653568E-1,-2.1170306E-1,2.1276653E0,2.6140356E0,4.647615E0,8.386944E-1,2.4931002E0,2.883912E0,4.557119E0,5.937713E0,7.264231E0,8.582414E0,1.2038943E1,8.249209E0,9.451446E0,1.0796687E1,1.4409078E1,1.3454831E1,1.219981E1],"categories":[],"categories_nodes":[],"categories_segments":[],"categories_sizes":[],"default_left":[0,0,0,0,0,0,0,0,0,0,0,0,0,0,0,0,0,0,0,0,0,0,0,0,0,0,0,0,0,0,0,0,0,0,0,0,0,0,0,0,0,0,0,0,0,0,0,0,0,0,0,0,0,0,0,0,0,0,0,0,0,0,0,0,0,0,0,0,0,0,0,0,0,0,0,0,0,0,0,0,0,0,0,0,0,0,0,0,0,0,0,0,0,0,0,0,0,0,0,0,0,0,0,0,0],"id":3,"left_children":[1,3,5,7,9,11,13,15,17,19,21,23,25,27,29,31,33,35,37,39,41,43,45,47,49,51,53,55,57,-1,59,61,63,-1,-1,65,67,69,71,73,75,77,79,81,83,85,87,89,91,93,-1,95,97,99,-1,101,103,-1,-1,-1,-1,-1,-1,-1,-1,-1,-1,-1,-1,-1,-1,-1,-1,-1,-1,-1,-1,-1,-1,-1,-1,-1,-1,-1,-1,-1,-1,-1,-1,-1,-1,-1,-1,-1,-1,-1,-1,-1,-1,-1,-1,-1,-1,-1,-1],"loss_changes":[1.00505224E8,1.6868204E7,1.4323088E7,2.528968E6,3.029186E6,3.160926E6,4.253908E6,4.71912E5,3.95466E5,5.89935E5,4.0410384E5,2.7714825E5,4.61982E5,3.68636E5,3.2157E5,1.76888E5,4.43855E4,7.8102E4,1.49428E5,1.45811E5,1.26860625E5,1.5671712E5,2.2984167E5,7.9837625E4,4.397875E4,1.57032E5,1.00559E5,8.1848E4,3.1086E4,0E0,2.831E4,4.419E3,1.7182E4,0E0,0E0,9.751E3,2.255375E4,7.1441E4,1.44505E4,3.7548E4,7.33765E4,3.857025E4,1.0460572E5,1.5614352E4,1.4355838E5,1.1821757E5,9.6378875E4,5.0968812E4,5.8526375E4,3.031175E4,0E0,7.38235E4,1.1728125E3,5.1885E4,0E0,1.77075E4,1.5615E4,0E0,0E0,0E0,0E0,0E0,0E0,0E0,0E0,0E0,0E0,0E0,0E0,0E0,0E0,0E0,0E0,0E0,0E0,0E0,0E0,0E0,0E0,0E0,0E0,0E0,0E0,0E0,0E0,0E0,0E0,0E0,0E0,0E0,0E0,0E0,0E0,0E0,0E0,0E0,0E0,0E0,0E0,0E0,0E0,0E0,0E0,0E0,0E0],"parents":[2147483647,0,0,1,1,2,2,3,3,4,4,5,5,6,6,7,7,8,8,9,9,10,10,11,11,12,12,13,13,14,14,15,15,16,16,17,17,18,18,19,19,20,20,21,21,22,22,23,23,24,24,25,25,26,26,27,27,28,28,30,30,31,31,32,32,35,35,36,36,37,37,38,38,39,39,40,40,41,41,42,42,43,43,44,44,45,45,46,46,47,47,48,48,49,49,51,51,52,52,53,53,55,55,56,56],"right_children":[2,4,6,8,10,12,14,16,18,20,22,24,26,28,30,32,34,36,38,40,42,44,46,48,50,52,54,56,58,-1,60,62,64,-1,-1,66,68,70,72,74,76,78,80,82,84,86,88,90,92,94,-1,96,98,100,-1,102,104,-1,-1,-1,-1,-1,-1,-1,-1,-1,-1,-1,-1,-1,-1,-1,-1,-1,-1,-1,-1,-1,-1,-1,-1,-1,-1,-1,-1,-1,-1,-1,-1,-1,-1,-1,-1,-1,-1,-1,-1,-1,-1,-1,-1,-1,-1,-1,-1],"split_conditions":[5.3926E2,4.2406E2,6.9731E2,3.6081E2,4.8512E2,6.1588E2,8.0702E2,3.8352E2,3.9553E2,4.7007E2,4.9447E2,5.8049E2,6.5818E2,7.4705E2,8.823E2,3.1475E2,4.4856E2,3.9284E2,5.0103E2,4.4888E2,1E0,1E0,5.4041E2,5.4899E2,7.811E2,7.811E2,7.6545E2,7.1229E2,7.7044E2,2.067224E1,9.3384E2,2.9088E2,3.2747E2,-1.1587798E1,-9.294299E0,2.3E1,1E0,4.0315E2,5.2474E2,4.3352E2,1.7E1,4.6286E2,6E0,5.585E2,1.8E1,1.7E1,3.674E1,5.665E2,5.5776E2,3.813E1,8.490375E0,6.3806E2,4.228E1,6.7411E2,1.3544489E1,7.6545E2,5E0,1.46442995E1,1.7012833E1,2.4766073E1,2.8956293E1,-1.7410364E1,-1.5637748E1,-1.4763168E1,-1.3326732E1,-1.1420339E1,-8.896652E0,-5.456265E0,-9.416351E0,-9.009701E0,-7.4954925E0,-6.523839E0,-4.998011E0,-6.8741546E0,-5.7830024E0,-5.263636E0,-3.607303E0,-4.3869514E0,-3.260555E0,-3.1346703E-1,-3.3823948E0,-3.0853227E-1,1.3523428E0,-2.8877292E0,1.93008E-1,-1.4657652E0,6.653568E-1,-2.1170306E-1,2.1276653E0,2.6140356E0,4.647615E0,8.386944E-1,2.4931002E0,2.883912E0,4.557119E0,5.937713E0,7.264231E0,8.582414E0,1.2038943E1,8.249209E0,9.451446E0,1.0796687E1,1.4409078E1,1.3454831E1,1.219981E1],"split_indices":[6,6,6,6,7,6,6,7,7,6,6,6,6,6,6,6,7,6,7,6,10,8,7,5,4,4,4,6,6,0,6,6,7,0,0,8,8,6,7,7,8,7,9,7,8,8,2,7,6,2,0,6,2,6,0,4,8,0,0,0,0,0,0,0,0,0,0,0,0,0,0,0,0,0,0,0,0,0,0,0,0,0,0,0,0,0,0,0,0,0,0,0,0,0,0,0,0,0,0,0,0,0,0,0,0],"split_type":[0,0,0,0,0,0,0,0,0,0,0,0,0,0,0,0,0,0,0,0,0,0,0,0,0,0,0,0,0,0,0,0,0,0,0,0,0,0,0,0,0,0,0,0,0,0,0,0,0,0,0,0,0,0,0,0,0,0,0,0,0,0,0,0,0,0,0,0,0,0,0,0,0,0,0,0,0,0,0,0,0,0,0,0,0,0,0,0,0,0,0,0,0,0,0,0,0,0,0,0,0,0,0,0,0],"sum_hessian":[2.1102E4,1.2523E4,8.579E3,4.342E3,8.181E3,6.37E3,2.209E3,1.796E3,2.546E3,4.655E3,3.526E3,2.781E3,3.589E3,1.724E3,4.85E2,1.353E3,4.43E2,8.77E2,1.669E3,2.913E3,1.742E3,1.522E3,2.004E3,1.477E3,1.304E3,1.846E3,1.743E3,1.312E3,4.12E2,2.36E2,2.49E2,4.3E2,9.23E2,2.69E2,1.74E2,5.14E2,3.63E2,1.365E3,3.04E2,1.398E3,1.515E3,1.297E3,4.45E2,2.39E2,1.283E3,1.178E3,8.26E2,5.14E2,9.63E2,1.277E3,2.7E1,1.776E3,7E1,1.691E3,5.2E1,4.91E2,8.21E2,2.5E2,1.62E2,1.68E2,8.1E1,1.51E2,2.79E2,2.32E2,6.91E2,4.77E2,3.7E1,2E1,3.43E2,6.54E2,7.11E2,1.42E2,1.62E2,6.58E2,7.4E2,1.153E3,3.62E2,5.36E2,7.61E2,2.35E2,2.1E2,1.49E2,9E1,1.108E3,1.75E2,7.91E2,3.87E2,2.54E2,5.72E2,2.95E2,2.19E2,3.23E2,6.4E2,1.27E2,1.15E3,8.78E2,8.98E2,1.4E1,5.6E1,7.23E2,9.68E2,4.68E2,2.3E1,3.6E2,4.61E2],"tree_param":{"num_deleted":"0","num_feature":"13","num_nodes":"105","size_leaf_vector":"1"}},{"base_weights":[-1.5018877E-1,-5.3049553E1,7.39571E1,-1.0049781E2,-3.0375792E1,5.1541355E1,1.3687758E2,-1.3036224E2,-8.547129E1,-4.6210793E1,-1.1417534E1,2.8945396E1,7.039829E1,1.15762955E2,2.1334448E2,-1.4677594E2,-1.20392876E2,-9.8487785E1,-7.550286E1,-5.5078167E1,-3.4275215E1,-1.717205E1,5.937157E0,1.8165989E1,3.7502693E1,6.126509E1,8.18984E1,1.0650303E2,1.3556735E2,1.8665195E1,2.388676E2,-1.6422148E1,-1.4289087E1,-1.2467971E2,-9.987626E1,-1.0529793E2,-7.839377E1,-8.090682E1,-5.6091213E1,-6.2711414E1,-4.9748158E1,-3.796887E1,-1.3420489E1,-2.3190197E1,1.9383078E0,-1.3955828E1,1.8368788E1,2.6094212E1,1.1462689E1,3.65628E1,7.843999E0,5.973373E1,1.0671807E2,8.0498886E1,1.1804588E2,9.87946E1,1.1332404E2,1.2891441E2,1.5193393E1,2.2444143E1,2.6393476E1,-1.2631418E1,-1.0825585E1,-6.214308E0,-1.0185737E1,-1.1685765E1,-1.0136479E1,-8.720426E0,-7.2410965E0,-8.821895E0,-7.508723E0,-5.9800835E0,-4.307636E0,-6.4154587E0,-3.744332E0,-5.347718E0,-3.9768467E0,-4.723226E0,-3.4794824E0,-2.815655E0,-6.9569296E-1,-3.0379539E0,-1.7420574E0,-9.993734E-1,6.0056347E-1,-1.8397039E0,1.1328385E0,1.3413846E0,3.0809376E0,2.1528108E0,4.782813E0,7.011863E-1,2.293598E0,2.2737477E0,3.91032E0,4.9354744E0,6.2908144E0,5.800096E0,1.0991608E1,8.722217E0,7.6164904E0,8.52427E0,1.2597841E1,1.0758588E1,9.294392E0,1.1176215E1,1.3999242E1,1.3345825E1,1.1831008E1],"categories":[],"categories_nodes":[],"categories_segments":[],"categories_sizes":[],"default_left":[0,0,0,0,0,0,0,0,0,0,0,0,0,0,0,0,0,0,0,0,0,0,0,0,0,0,0,0,0,0,0,0,0,0,0,0,0,0,0,0,0,0,0,0,0,0,0,0,0,0,0,0,0,0,0,0,0,0,0,0,0,0,0,0,0,0,0,0,0,0,0,0,0,0,0,0,0,0,0,0,0,0,0,0,0,0,0,0,0,0,0,0,0,0,0,0,0,0,0,0,0,0,0,0,0,0,0,0,0],"id":4,"left_children":[1,3,5,7,9,11,13,15,17,19,21,23,25,27,29,31,33,35,37,39,41,43,45,47,49,51,53,55,57,-1,59,-1,-1,61,63,65,67,69,71,73,75,77,79,81,83,85,87,89,91,93,-1,95,97,99,101,103,105,107,-1,-1,-1,-1,-1,-1,-1,-1,-1,-1,-1,-1,-1,-1,-1,-1,-1,-1,-1,-1,-1,-1,-1,-1,-1,-1,-1,-1,-1,-1,-1,-1,-1,-1,-1,-1,-1,-1,-1,-1,-1,-1,-1,-1,-1,-1,-1,-1,-1,-1,-1],"loss_changes":[8.2685464E7,1.3237176E7,1.2383376E7,1.774448E6,2.499866E6,2.758592E6,3.70008E6,1.99936E5,3.36394E5,4.78393E5,3.7880206E5,2.7133675E5,3.6584E5,3.17468E5,2.94648E5,1.0257E4,6.0788E4,1.48549E5,1.53322E5,1.02732E5,1.486925E5,3.2759238E5,2.339574E5,6.915797E4,6.03375E4,1.3087E5,6.9396E4,5.3876E4,4.2777E4,0E0,3.148E4,0E0,0E0,4.691E3,4.792125E3,2.6915E4,9.166625E3,4.336E4,1.33945E4,3.64605E4,5.50625E4,4.67155E4,2.7708094E4,8.931125E4,3.320665E4,4.108361E4,3.5458188E4,5.830853E4,3.609278E4,5.558075E4,0E0,5.9813E4,3.4231875E3,3.7194E4,3.812E3,2.02755E4,1.1403E4,4.1335E3,0E0,0E0,0E0,0E0,0E0,0E0,0E0,0E0,0E0,0E0,0E0,0E0,0E0,0E0,0E0,0E0,0E0,0E0,0E0,0E0,0E0,0E0,0E0,0E0,0E0,0E0,0E0,0E0,0E0,0E0,0E0,0E0,0E0,0E0,0E0,0E0,0E0,0E0,0E0,0E0,0E0,0E0,0E0,0E0,0E0,0E0,0E0,0E0,0E0,0E0,0E0],"parents":[2147483647,0,0,1,1,2,2,3,3,4,4,5,5,6,6,7,7,8,8,9,9,10,10,11,11,12,12,13,13,14,14,15,15,16,16,17,17,18,18,19,19,20,20,21,21,22,22,23,23,24,24,25,25,26,26,27,27,28,28,30,30,33,33,34,34,35,35,36,36,37,37,38,38,39,39,40,40,41,41,42,42,43,43,44,44,45,45,46,46,47,47,48,48,49,49,51,51,52,52,53,53,54,54,55,55,56,56,57,57],"right_children":[2,4,6,8,10,12,14,16,18,20,22,24,26,28,30,32,34,36,38,40,42,44,46,48,50,52,54,56,58,-1,60,-1,-1,62,64,66,68,70,72,74,76,78,80,82,84,86,88,90,92,94,-1,96,98,100,102,104,106,108,-1,-1,-1,-1,-1,-1,-1,-1,-1,-1,-1,-1,-1,-1,-1,-1,-1,-1,-1,-1,-1,-1,-1,-1,-1,-1,-1,-1,-1,-1,-1,-1,-1,-1,-1,-1,-1,-1,-1,-1,-1,-1,-1,-1,-1,-1,-1,-1,-1,-1,-1],"split_conditions":[5.3302E2,4.1687E2,6.9503E2,3.5665E2,4.7823E2,6.1344E2,8.0702E2,3.1887E2,3.7878E2,4.6117E2,5.6339E2,5.691E2,6.5996E2,7.3791E2,8.823E2,2.7977E2,3.9781E2,4.4954E2,4.658E2,4.3222E2,5.4632E2,5.4887E2,4.1631E2,5.4633E2,7.811E2,7.811E2,7.6545E2,7.1229E2,7.7044E2,1.8665195E1,9.3384E2,-1.6422148E1,-1.4289087E1,2.2E1,1E0,3.3819E2,4.7221E2,3.9927E2,5.3428E2,1.7198E2,1.7E1,4.4756E2,7.336E1,4.7264E2,1.4794E2,9E0,6.0544E2,6.1647E2,1.7E1,4.7576E2,7.843999E0,5.725E2,4.5315E2,5E0,5.4632E2,5E0,7.5069E2,2E1,1.5193393E1,2.2444143E1,2.6393476E1,-1.2631418E1,-1.0825585E1,-6.214308E0,-1.0185737E1,-1.1685765E1,-1.0136479E1,-8.720426E0,-7.2410965E0,-8.821895E0,-7.508723E0,-5.9800835E0,-4.307636E0,-6.4154587E0,-3.744332E0,-5.347718E0,-3.9768467E0,-4.723226E0,-3.4794824E0,-2.815655E0,-6.9569296E-1,-3.0379539E0,-1.7420574E0,-9.993734E-1,6.0056347E-1,-1.8397039E0,1.1328385E0,1.3413846E0,3.0809376E0,2.1528108E0,4.782813E0,7.011863E-1,2.293598E0,2.2737477E0,3.91032E0,4.9354744E0,6.2908144E0,5.800096E0,1.0991608E1,8.722217E0,7.6164904E0,8.52427E0,1.2597841E1,1.0758588E1,9.294392E0,1.1176215E1,1.3999242E1,1.3345825E1,1.1831008E1],"split_indices":[6,6,6,1,1,6,6,6,6,6,1,6,6,6,6,6,0,1,1,1,0,0,0,5,4,4,4,6,6,0,6,0,0,8,8,6,1,6,1,12,8,1,12,0,12,8,1,1,8,0,0,0,0,8,0,8,4,8,0,0,0,0,0,0,0,0,0,0,0,0,0,0,0,0,0,0,0,0,0,0,0,0,0,0,0,0,0,0,0,0,0,0,0,0,0,0,0,0,0,0,0,0,0,0,0,0,0,0,0],"split_type":[0,0,0,0,0,0,0,0,0,0,0,0,0,0,0,0,0,0,0,0,0,0,0,0,0,0,0,0,0,0,0,0,0,0,0,0,0,0,0,0,0,0,0,0,0,0,0,0,0,0,0,0,0,0,0,0,0,0,0,0,0,0,0,0,0,0,0,0,0,0,0,0,0,0,0,0,0,0,0,0,0,0,0,0,0,0,0,0,0,0,0,0,0,0,0,0,0,0,0,0,0,0,0,0,0,0,0,0,0],"sum_hessian":[2.109E4,1.2306E4,8.784E3,3.978E3,8.328E3,6.478E3,2.306E3,1.329E3,2.649E3,4.537E3,3.791E3,2.948E3,3.53E3,1.809E3,4.97E2,4.97E2,8.32E2,1.145E3,1.504E3,2.601E3,1.936E3,2.847E3,9.44E2,1.306E3,1.642E3,1.971E3,1.559E3,1.237E3,5.72E2,2.47E2,2.5E2,8.3E1,4.14E2,6.84E2,1.48E2,8.52E2,2.93E2,1.174E3,3.3E2,1.065E3,1.536E3,1.644E3,2.92E2,2.165E3,6.82E2,3.63E2,5.81E2,5.97E2,7.09E2,1.607E3,3.5E1,1.909E3,6.2E1,1.504E3,5.5E1,5.88E2,6.49E2,4.13E2,1.59E2,1.65E2,8.5E1,6.16E2,6.8E1,9E0,1.39E2,2.09E2,6.43E2,1.13E2,1.8E2,5.14E2,6.6E2,2.54E2,7.6E1,1.006E3,5.9E1,1.115E3,4.21E2,4.16E2,1.228E3,8.8E1,2.04E2,9.62E2,1.203E3,1.73E2,5.09E2,3.09E2,5.4E1,4.17E2,1.64E2,4.95E2,1.02E2,5.12E2,1.97E2,2.51E2,1.356E3,4.51E2,1.458E3,5E0,5.7E1,5.82E2,9.22E2,1.3E1,4.2E1,2.28E2,3.6E2,6.18E2,3.1E1,2.81E2,1.32E2],"tree_param":{"num_deleted":"0","num_feature":"13","num_nodes":"109","size_leaf_vector":"1"}},{"base_weights":[-6.573191E-2,-4.5855137E1,6.922172E1,-8.5174515E1,-2.2677395E1,5.201623E1,1.3480875E2,-1.0925455E2,-6.748927E1,-3.488174E1,-3.8532112E0,3.253162E1,7.120715E1,1.1438705E2,1.9961073E2,-1.17956406E2,-8.840872E1,-7.9835754E1,-6.1366856E1,-3.8430435E1,-1.398626E1,-1.1614856E1,9.882746E0,2.291421E1,4.2135143E1,6.221054E1,8.139954E1,1.0438263E2,1.3596117E2,1.8256453E1,2.2340363E1,-1.3172389E2,-1.0977064E2,-9.612007E1,-7.744386E1,-8.673682E1,-6.2764614E1,-6.441029E1,-4.4800823E1,-4.5909237E1,-3.0997631E1,1.6702754E0,-2.0239996E1,-1.671833E1,7.771757E0,-7.6633325E0,1.4301862E1,1.8662197E1,3.1019093E1,4.107696E1,7.829934E1,6.0753593E1,1.0392456E2,8.000303E1,1.1993921E2,1.0255382E2,1.2963503E2,1.2630832E1,1.4895648E1,-1.4279927E1,-1.2603195E1,-1.1193384E1,-9.291408E0,-1.0314916E1,-9.035091E0,-8.573786E0,-7.020307E0,-8.092169E0,-9.177197E0,-6.5107055E0,-4.763862E0,-7.091761E0,-6.0201497E0,-4.587185E0,-1.0536226E0,-4.690812E0,-2.141779E0,-3.5725439E0,-1.8781487E0,-6.085431E-1,5.5365825E-1,-3.152718E0,-1.205958E0,-2.214876E0,-1.182258E0,1.0496567E0,-1.2200325E0,-1.1897874E0,1.6266193E0,7.263784E-1,2.296066E0,6.803069E-1,2.4974022E0,1.5985292E0,3.5043657E0,2.9537954E0,4.310351E0,9.708518E0,6.7043505E0,5.150858E0,6.373904E0,6.7855263E0,1.0747321E1,7.447231E0,8.611709E0,8.046621E0,1.2724534E1,8.480552E0,1.0486265E1,9.99547E0,1.3950114E1],"categories":[],"categories_nodes":[],"categories_segments":[],"categories_sizes":[],"default_left":[0,0,0,0,0,0,0,0,0,0,0,0,0,0,0,0,0,0,0,0,0,0,0,0,0,0,0,0,0,0,0,0,0,0,0,0,0,0,0,0,0,0,0,0,0,0,0,0,0,0,0,0,0,0,0,0,0,0,0,0,0,0,0,0,0,0,0,0,0,0,0,0,0,0,0,0,0,0,0,0,0,0,0,0,0,0,0,0,0,0,0,0,0,0,0,0,0,0,0,0,0,0,0,0,0,0,0,0,0,0,0],"id":5,"left_children":[1,3,5,7,9,11,13,15,17,19,21,23,25,27,29,31,33,35,37,39,41,43,45,47,49,51,53,55,57,-1,-1,59,61,63,65,67,69,71,73,75,77,79,81,83,85,87,89,91,93,95,97,99,101,103,105,107,109,-1,-1,-1,-1,-1,-1,-1,-1,-1,-1,-1,-1,-1,-1,-1,-1,-1,-1,-1,-1,-1,-1,-1,-1,-1,-1,-1,-1,-1,-1,-1,-1,-1,-1,-1,-1,-1,-1,-1,-1,-1,-1,-1,-1,-1,-1,-1,-1,-1,-1,-1,-1,-1,-1],"loss_changes":[6.716778E7,1.1614834E7,9.499092E6,2.005656E6,1.842581E6,2.49364E6,2.29303E6,3.52346E5,2.01297E5,3.602795E5,3.365875E5,3.051125E5,3.03206E5,2.73494E5,1.28706E5,1.44194E5,4.26795E4,1.00687E5,8.9267E4,2.297615E5,6.9357234E4,1.99691E5,8.8503766E4,5.6554188E4,6.018275E4,1.024575E5,7.5045E4,2.8939E4,3.3718E4,0E0,0E0,1.4756E4,2.1997E4,4.61075E3,8.979125E3,1.12665E4,6.2056875E3,3.79495E4,1.00434375E4,4.9654E4,1.19974875E5,6.120784E3,4.6336375E4,4.2192562E4,2.303876E4,2.3499125E4,5.5347734E4,8.1416375E4,3.3861812E4,3.641475E4,3.201375E3,4.451E4,2.416875E2,4.5004E4,5.0251875E3,2.6247E4,3.016375E3,0E0,0E0,0E0,0E0,0E0,0E0,0E0,0E0,0E0,0E0,0E0,0E0,0E0,0E0,0E0,0E0,0E0,0E0,0E0,0E0,0E0,0E0,0E0,0E0,0E0,0E0,0E0,0E0,0E0,0E0,0E0,0E0,0E0,0E0,0E0,0E0,0E0,0E0,0E0,0E0,0E0,0E0,0E0,0E0,0E0,0E0,0E0,0E0,0E0,0E0,0E0,0E0,0E0,0E0],"parents":[2147483647,0,0,1,1,2,2,3,3,4,4,5,5,6,6,7,7,8,8,9,9,10,10,11,11,12,12,13,13,14,14,15,15,16,16,17,17,18,18,19,19,20,20,21,21,22,22,23,23,24,24,25,25,26,26,27,27,28,28,31,31,32,32,33,33,34,34,35,35,36,36,37,37,38,38,39,39,40,40,41,41,42,42,43,43,44,44,45,45,46,46,47,47,48,48,49,49,50,50,51,51,52,52,53,53,54,54,55,55,56,56],"right_children":[2,4,6,8,10,12,14,16,18,20,22,24,26,28,30,32,34,36,38,40,42,44,46,48,50,52,54,56,58,-1,-1,60,62,64,66,68,70,72,74,76,78,80,82,84,86,88,90,92,94,96,98,100,102,104,106,108,110,-1,-1,-1,-1,-1,-1,-1,-1,-1,-1,-1,-1,-1,-1,-1,-1,-1,-1,-1,-1,-1,-1,-1,-1,-1,-1,-1,-1,-1,-1,-1,-1,-1,-1,-1,-1,-1,-1,-1,-1,-1,-1,-1,-1,-1,-1,-1,-1,-1,-1,-1,-1,-1,-1],"split_conditions":[5.439E2,4.296E2,7.1229E2,3.6543E2,4.8893E2,6.3239E2,8.3303E2,4.5478E2,3.9284E2,5.8918E2,5.6655E2,5.8977E2,6.7224E2,7.5348E2,9.0201E2,3.1887E2,6.0556E2,5.907E2,6.1506E2,4.6117E2,1E0,5.7761E2,4.1915E2,1.7E1,7.811E2,7.811E2,7.6545E2,7.5069E2,7.8589E2,1.8256453E1,2.2340363E1,2.9088E2,2.2E1,3.4312E2,3.4312E2,7E0,6.9314E2,4.1118E2,1.8238E2,5.4201E2,1.7E1,4.6033E2,4.5758E2,5.0536E2,6E0,8E0,6.5407E2,5.2794E2,4.677E2,4.9555E2,1E0,5.9505E2,4.361E1,6.9073E2,5.4632E2,1.4794E2,5.8988E2,1.2630832E1,1.4895648E1,-1.4279927E1,-1.2603195E1,-1.1193384E1,-9.291408E0,-1.0314916E1,-9.035091E0,-8.573786E0,-7.020307E0,-8.092169E0,-9.177197E0,-6.5107055E0,-4.763862E0,-7.091761E0,-6.0201497E0,-4.587185E0,-1.0536226E0,-4.690812E0,-2.141779E0,-3.5725439E0,-1.8781487E0,-6.085431E-1,5.5365825E-1,-3.152718E0,-1.205958E0,-2.214876E0,-1.182258E0,1.0496567E0,-1.2200325E0,-1.1897874E0,1.6266193E0,7.263784E-1,2.296066E0,6.803069E-1,2.4974022E0,1.5985292E0,3.5043657E0,2.9537954E0,4.310351E0,9.708518E0,6.7043505E0,5.150858E0,6.373904E0,6.7855263E0,1.0747321E1,7.447231E0,8.611709E0,8.046621E0,1.2724534E1,8.480552E0,1.0486265E1,9.99547E0,1.3950114E1],"split_indices":[6,6,6,6,6,6,6,4,6,4,4,6,6,6,6,6,4,4,4,6,8,0,0,8,4,4,4,4,6,0,0,6,8,6,6,9,4,6,12,0,8,6,6,6,9,8,4,0,4,0,8,0,2,6,0,12,0,0,0,0,0,0,0,0,0,0,0,0,0,0,0,0,0,0,0,0,0,0,0,0,0,0,0,0,0,0,0,0,0,0,0,0,0,0,0,0,0,0,0,0,0,0,0,0,0,0,0,0,0,0,0],"split_type":[0,0,0,0,0,0,0,0,0,0,0,0,0,0,0,0,0,0,0,0,0,0,0,0,0,0,0,0,0,0,0,0,0,0,0,0,0,0,0,0,0,0,0,0,0,0,0,0,0,0,0,0,0,0,0,0,0,0,0,0,0,0,0,0,0,0,0,0,0,0,0,0,0,0,0,0,0,0,0,0,0,0,0,0,0,0,0,0,0,0,0,0,0,0,0,0,0,0,0,0,0,0,0,0,0,0,0,0,0,0,0],"sum_hessian":[2.1169E4,1.2746E4,8.423E3,4.726E3,8.02E3,6.674E3,1.749E3,1.999E3,2.727E3,4.865E3,3.155E3,3.313E3,3.361E3,1.332E3,4.17E2,1.407E3,5.92E2,9E2,1.827E3,4.158E3,7.07E2,2.016E3,1.139E3,1.657E3,1.656E3,1.789E3,1.572E3,9.14E2,4.18E2,2.48E2,1.69E2,5.19E2,8.88E2,3.43E2,2.49E2,6.38E2,2.62E2,1.541E3,2.86E2,2.07E3,2.088E3,2.02E2,5.05E2,1.596E3,4.2E2,2.29E2,9.1E2,1.089E3,5.68E2,1.611E3,4.5E1,1.731E3,5.8E1,1.52E3,5.2E1,8.57E2,5.7E1,2.46E2,1.72E2,1.68E2,3.51E2,7.82E2,1.06E2,1.47E2,1.96E2,1.11E2,1.38E2,3.04E2,3.34E2,2.24E2,3.8E1,5.99E2,9.42E2,2.77E2,9E0,1.988E3,8.2E1,1.504E3,5.84E2,6.7E1,1.35E2,2.11E2,2.94E2,7.55E2,8.41E2,3.7E2,5E1,1.95E2,3.4E1,5.03E2,4.07E2,3.79E2,7.1E2,1.21E2,4.47E2,2.43E2,1.368E3,1.4E1,3.1E1,4.27E2,1.304E3,7E0,5.1E1,8.05E2,7.15E2,1E1,4.2E1,1.03E2,7.54E2,1.7E1,4E1],"tree_param":{"num_deleted":"0","num_feature":"13","num_nodes":"111","size_leaf_vector":"1"}},{"base_weights":[2.6758167E-1,-4.3598972E1,5.903376E1,-7.9610176E1,-2.447163E1,3.9852303E1,1.0896201E2,-1.02675415E2,-6.60151E1,-3.7745216E1,-1.0371364E1,2.2363195E1,5.596427E1,9.091201E1,1.6720041E2,-1.1431373E2,-9.070499E1,-7.5745445E1,-5.7506798E1,-4.63733E1,-3.1368282E1,-1.8306063E1,-1.9051573E0,1.26942835E1,2.943653E1,4.6742603E1,6.3086624E1,8.181874E1,1.0266152E2,1.4619215E2,1.928801E2,-1.2365373E1,-1.0792974E1,-9.586263E1,-8.132463E1,-8.113538E1,-5.8796597E1,-6.1547474E1,-4.1649155E1,-4.7790474E1,-3.2309666E1,-3.420702E1,-1.9060064E1,-2.3369053E1,-7.091082E0,-2.0616676E1,2.594383E0,1.9414883E1,5.902848E0,2.773659E1,4.9621765E1,4.5457893E1,8.3906586E1,6.196132E1,9.5409195E1,8.041338E1,1.1533166E2,1.00000565E2,1.243632E1,1.33947115E1,1.5754517E1,1.8080168E1,2.149576E1,-9.78498E0,-8.661099E0,-8.30004E0,-4.378879E0,-9.3581705E0,-7.8637657E0,-6.058989E0,-4.3587284E0,-6.560665E0,-5.494367E0,-4.577583E0,-3.221145E0,-5.4990478E0,-4.4845214E0,-5.218187E0,-2.7128892E0,-4.133365E0,-3.0605102E0,-3.9423635E0,-1.4399145E0,-3.010713E0,-1.9187075E0,-1.4589869E0,-8.876447E-2,-2.4628682E0,-5.457441E-1,-6.9861464E-2,1.5232657E0,1.2726353E0,2.9336178E0,3.4012565E-1,2.2194834E0,1.9634142E0,3.057122E0,5.470081E0,2.5635078E0,4.96132E0,3.980856E0,6.3819766E0,9.286002E0,5.2283435E0,6.4014673E0,7.0740623E0,1.0177489E1,7.0905266E0,8.27879E0,1.2777522E1,8.52378E0,8.2437315E0,1.0215376E1],"categories":[],"categories_nodes":[],"categories_segments":[],"categories_sizes":[],"default_left":[0,0,0,0,0,0,0,0,0,0,0,0,0,0,0,0,0,0,0,0,0,0,0,0,0,0,0,0,0,0,0,0,0,0,0,0,0,0,0,0,0,0,0,0,0,0,0,0,0,0,0,0,0,0,0,0,0,0,0,0,0,0,0,0,0,0,0,0,0,0,0,0,0,0,0,0,0,0,0,0,0,0,0,0,0,0,0,0,0,0,0,0,0,0,0,0,0,0,0,0,0,0,0,0,0,0,0,0,0,0,0,0,0],"id":6,"left_children":[1,3,5,7,9,11,13,15,17,19,21,23,25,27,29,31,33,35,37,39,41,43,45,47,49,51,53,55,57,59,61,-1,-1,63,65,67,69,71,73,75,77,79,81,83,85,87,89,91,93,95,97,99,101,103,105,107,109,111,-1,-1,-1,-1,-1,-1,-1,-1,-1,-1,-1,-1,-1,-1,-1,-1,-1,-1,-1,-1,-1,-1,-1,-1,-1,-1,-1,-1,-1,-1,-1,-1,-1,-1,-1,-1,-1,-1,-1,-1,-1,-1,-1,-1,-1,-1,-1,-1,-1,-1,-1,-1,-1,-1,-1],"loss_changes":[5.403473E7,8.265002E6,8.575646E6,1.298614E6,1.466947E6,1.82301E6,2.598064E6,2.04435E5,2.12703E5,2.20711E5,2.554365E5,2.1204575E5,2.18315E5,1.94581E5,2.88447E5,3.3021E4,2.9197E4,1.066665E5,8.73245E4,3.2609E4,8.057775E4,1.1129294E5,1.5505503E5,5.9857156E4,6.0140375E4,6.64535E4,6.3108E4,4.1383E4,3.5183E4,2.4327E4,3.0695E4,0E0,0E0,4.785E2,1.3839375E4,2.13175E4,5.4765E3,2.6299E4,9.734219E3,3.0499E4,1.5048969E4,4.719175E4,4.099883E4,3.751475E4,2.8454674E4,2.1574938E4,6.181453E4,4.3419297E4,2.6617064E4,3.7428875E4,1.54021875E4,3.14675E4,2.690625E3,3.3147E4,2.5191875E3,1.7504E4,4.440875E3,1.9545E4,0E0,0E0,0E0,0E0,0E0,0E0,0E0,0E0,0E0,0E0,0E0,0E0,0E0,0E0,0E0,0E0,0E0,0E0,0E0,0E0,0E0,0E0,0E0,0E0,0E0,0E0,0E0,0E0,0E0,0E0,0E0,0E0,0E0,0E0,0E0,0E0,0E0,0E0,0E0,0E0,0E0,0E0,0E0,0E0,0E0,0E0,0E0,0E0,0E0,0E0,0E0,0E0,0E0,0E0,0E0],"parents":[2147483647,0,0,1,1,2,2,3,3,4,4,5,5,6,6,7,7,8,8,9,9,10,10,11,11,12,12,13,13,14,14,15,15,16,16,17,17,18,18,19,19,20,20,21,21,22,22,23,23,24,24,25,25,26,26,27,27,28,28,29,29,30,30,33,33,34,34,35,35,36,36,37,37,38,38,39,39,40,40,41,41,42,42,43,43,44,44,45,45,46,46,47,47,48,48,49,49,50,50,51,51,52,52,53,53,54,54,55,55,56,56,57,57],"right_children":[2,4,6,8,10,12,14,16,18,20,22,24,26,28,30,32,34,36,38,40,42,44,46,48,50,52,54,56,58,60,62,-1,-1,64,66,68,70,72,74,76,78,80,82,84,86,88,90,92,94,96,98,100,102,104,106,108,110,112,-1,-1,-1,-1,-1,-1,-1,-1,-1,-1,-1,-1,-1,-1,-1,-1,-1,-1,-1,-1,-1,-1,-1,-1,-1,-1,-1,-1,-1,-1,-1,-1,-1,-1,-1,-1,-1,-1,-1,-1,-1,-1,-1,-1,-1,-1,-1,-1,-1,-1,-1,-1,-1,-1,-1],"split_conditions":[5.2968E2,4.2137E2,6.9073E2,3.6632E2,4.7527E2,6.1344E2,7.8589E2,3.3528E2,3.8815E2,4.5183E2,5.1053E2,5.6457E2,6.4966E2,7.2431E2,8.823E2,3.0443E2,3.6307E2,4.6092E2,4.658E2,1.6582E2,1E0,4.412E1,4.637E2,5.4633E2,6.5962E2,8.0359E2,7.6545E2,7.811E2,7.3367E2,8.3303E2,9.3384E2,-1.2365373E1,-1.0792974E1,1E0,2.3994E2,3.3192E2,5.2141E2,4.1897E2,5.3258E2,4.2063E2,3.612E1,4.4534E2,3.854E1,4.7908E2,1.4433E2,2.2006E2,5.9795E2,5.665E2,6.273E2,4.373E1,6.5802E2,6.4619E2,4.869E1,4.943E1,4.56E1,1.792E2,7.1581E2,1.6582E2,1.243632E1,1.33947115E1,1.5754517E1,1.8080168E1,2.149576E1,-9.78498E0,-8.661099E0,-8.30004E0,-4.378879E0,-9.3581705E0,-7.8637657E0,-6.058989E0,-4.3587284E0,-6.560665E0,-5.494367E0,-4.577583E0,-3.221145E0,-5.4990478E0,-4.4845214E0,-5.218187E0,-2.7128892E0,-4.133365E0,-3.0605102E0,-3.9423635E0,-1.4399145E0,-3.010713E0,-1.9187075E0,-1.4589869E0,-8.876447E-2,-2.4628682E0,-5.457441E-1,-6.9861464E-2,1.5232657E0,1.2726353E0,2.9336178E0,3.4012565E-1,2.2194834E0,1.9634142E0,3.057122E0,5.470081E0,2.5635078E0,4.96132E0,3.980856E0,6.3819766E0,9.286002E0,5.2283435E0,6.4014673E0,7.0740623E0,1.0177489E1,7.0905266E0,8.27879E0,1.2777522E1,8.52378E0,8.2437315E0,1.0215376E1],"split_indices":[6,6,6,1,1,6,6,6,6,6,1,6,6,6,6,6,6,1,1,12,10,2,6,5,1,4,4,4,4,6,6,0,0,10,12,6,1,1,1,1,2,1,2,6,12,12,1,1,1,2,5,5,2,2,2,12,5,12,0,0,0,0,0,0,0,0,0,0,0,0,0,0,0,0,0,0,0,0,0,0,0,0,0,0,0,0,0,0,0,0,0,0,0,0,0,0,0,0,0,0,0,0,0,0,0,0,0,0,0,0,0,0,0],"split_type":[0,0,0,0,0,0,0,0,0,0,0,0,0,0,0,0,0,0,0,0,0,0,0,0,0,0,0,0,0,0,0,0,0,0,0,0,0,0,0,0,0,0,0,0,0,0,0,0,0,0,0,0,0,0,0,0,0,0,0,0,0,0,0,0,0,0,0,0,0,0,0,0,0,0,0,0,0,0,0,0,0,0,0,0,0,0,0,0,0,0,0,0,0,0,0,0,0,0,0,0,0,0,0,0,0,0,0,0,0,0,0,0,0],"sum_hessian":[2.0959E4,1.2001E4,8.958E3,4.162E3,7.839E3,6.473E3,2.485E3,1.541E3,2.621E3,4.037E3,3.802E3,3.105E3,3.368E3,1.899E3,5.86E2,7.77E2,7.64E2,1.219E3,1.402E3,1.713E3,2.324E3,1.962E3,1.84E3,1.313E3,1.792E3,1.471E3,1.897E3,1.075E3,8.24E2,3.26E2,2.6E2,3.08E2,4.69E2,4.87E2,2.77E2,9.22E2,2.97E2,1.115E3,2.87E2,1.554E3,1.59E2,1.887E3,4.37E2,1.351E3,6.11E2,3.56E2,1.484E3,6.59E2,6.54E2,1.655E3,1.37E2,1.424E3,4.7E1,1.836E3,6.1E1,1.035E3,4E1,7.39E2,8.5E1,1.63E2,1.63E2,1.74E2,8.6E1,3.93E2,9.4E1,2.64E2,1.3E1,1.48E2,7.74E2,2.63E2,3.4E1,6.85E2,4.3E2,1.97E2,9E1,4.46E2,1.108E3,3.1E1,1.28E2,6.3E2,1.257E3,8E1,3.57E2,5.15E2,8.36E2,2.76E2,3.35E2,2.81E2,7.5E1,1.178E3,3.06E2,3.95E2,2.64E2,5.68E2,8.6E1,4.31E2,1.224E3,1.12E2,2.5E1,8.16E2,6.08E2,1.7E1,3E1,3.26E2,1.51E3,1.5E1,4.6E1,2.13E2,8.22E2,2.6E1,1.4E1,8.5E1,6.54E2],"tree_param":{"num_deleted":"0","num_feature":"13","num_nodes":"113","size_leaf_vector":"1"}},{"base_weights":[1.1502318E-1,-3.7145325E1,5.626257E1,-6.884634E1,-1.8130419E1,4.140107E1,1.06426575E2,-9.074789E1,-5.627E1,-2.8980404E1,-2.5681727E0,2.5898216E1,5.6388367E1,8.860892E1,1.5502724E2,-1.04144745E2,-8.1529015E1,-6.7756165E1,-4.968229E1,-3.4582794E1,-1.9026623E1,-1.0515575E1,5.0649247E0,1.8811785E1,3.427646E1,5.025902E1,6.531819E1,8.2811615E1,1.0664551E2,1.4137654E2,1.8088795E2,-1.1275951E1,-9.859761E1,-8.6108284E1,-6.397531E1,-7.293016E1,-5.629987E1,-5.2425797E1,-3.6846004E1,-3.997044E1,-2.986248E1,-2.2076242E1,-2.1739786E0,4.628255E0,-1.3757694E1,5.813809E-1,1.603052E1,1.7034624E1,3.888556E1,3.3251034E1,6.254691E1,4.9067078E1,8.536927E1,7.187435E1,6.0879723E1,8.94754E1,7.779283E1,8.85536E0,1.0946884E2,1.3011606E1,1.5259852E1,1.5838397E1,1.9049686E1,-9.926593E0,-6.675883E0,-8.847169E0,-7.9023895E0,-7.3821726E0,-6.096944E0,-7.4278045E0,-5.110065E0,-5.92467E0,-3.2272942E0,-5.9452057E0,-4.6351123E0,-4.166185E0,-2.9934204E0,-4.123395E0,-2.4730527E0,-3.4143124E0,-1.7959467E0,-2.402992E0,-1.447849E0,-1.8773645E0,8.219466E-3,-2.9680384E-3,1.2133907E0,-1.7422673E0,7.749745E-1,-4.6165878E-1,1.427055E0,-9.091313E-2,2.4769866E0,1.1827244E0,2.3894622E0,2.627113E0,5.1854205E0,3.6809967E0,2.6999655E0,7.434687E0,5.536273E0,3.9116445E0,5.158145E0,6.3091645E0,8.989763E0,6.9195285E0,9.119543E0,6.0134945E0,1.0507745E1,8.3273E0,9.931015E0,7.62323E0,1.1484439E1,1.0514056E1,1.2198808E1],"categories":[],"categories_nodes":[],"categories_segments":[],"categories_sizes":[],"default_left":[0,0,0,0,0,0,0,0,0,0,0,0,0,0,0,0,0,0,0,0,0,0,0,0,0,0,0,0,0,0,0,0,0,0,0,0,0,0,0,0,0,0,0,0,0,0,0,0,0,0,0,0,0,0,0,0,0,0,0,0,0,0,0,0,0,0,0,0,0,0,0,0,0,0,0,0,0,0,0,0,0,0,0,0,0,0,0,0,0,0,0,0,0,0,0,0,0,0,0,0,0,0,0,0,0,0,0,0,0,0,0,0,0,0,0],"id":7,"left_children":[1,3,5,7,9,11,13,15,17,19,21,23,25,27,29,31,33,35,37,39,41,43,45,47,49,51,53,55,57,59,61,-1,63,65,67,69,71,73,75,77,79,81,83,85,87,89,91,93,95,97,99,101,103,105,107,109,111,-1,113,-1,-1,-1,-1,-1,-1,-1,-1,-1,-1,-1,-1,-1,-1,-1,-1,-1,-1,-1,-1,-1,-1,-1,-1,-1,-1,-1,-1,-1,-1,-1,-1,-1,-1,-1,-1,-1,-1,-1,-1,-1,-1,-1,-1,-1,-1,-1,-1,-1,-1,-1,-1,-1,-1,-1,-1],"loss_changes":[4.40968E7,7.636116E6,6.263846E6,1.303224E6,1.3373848E6,1.505992E6,1.64973E6,2.05276E5,2.25138E5,2.5959125E5,1.9751283E5,1.888055E5,1.77218E5,1.38375E5,1.55845E5,2.2407E4,7.7271E4,6.09645E4,6.57805E4,7.471225E4,8.644594E4,7.837608E4,8.1651625E4,6.108425E4,4.0263875E4,7.78225E4,3.4575E4,2.8808E4,7.60225E3,2.3207E4,7.419E3,0E0,2.613E3,6.6205E3,1.908125E3,1.834825E4,2.2576625E4,6.4757E4,1.0129594E4,2.57585E4,8.0651E4,2.0800312E4,9.703408E3,9.860527E3,1.0371114E5,8.403077E4,7.138089E4,5.6584188E4,2.1532812E4,3.041425E4,1.0965625E2,4.54605E4,6.684375E2,2.13665E4,2.01635E4,1.934425E4,2.695925E4,0E0,2.8115E3,0E0,0E0,0E0,0E0,0E0,0E0,0E0,0E0,0E0,0E0,0E0,0E0,0E0,0E0,0E0,0E0,0E0,0E0,0E0,0E0,0E0,0E0,0E0,0E0,0E0,0E0,0E0,0E0,0E0,0E0,0E0,0E0,0E0,0E0,0E0,0E0,0E0,0E0,0E0,0E0,0E0,0E0,0E0,0E0,0E0,0E0,0E0,0E0,0E0,0E0,0E0,0E0,0E0,0E0,0E0,0E0],"parents":[2147483647,0,0,1,1,2,2,3,3,4,4,5,5,6,6,7,7,8,8,9,9,10,10,11,11,12,12,13,13,14,14,15,15,16,16,17,17,18,18,19,19,20,20,21,21,22,22,23,23,24,24,25,25,26,26,27,27,28,28,29,29,30,30,32,32,33,33,34,34,35,35,36,36,37,37,38,38,39,39,40,40,41,41,42,42,43,43,44,44,45,45,46,46,47,47,48,48,49,49,50,50,51,51,52,52,53,53,54,54,55,55,56,56,58,58],"right_children":[2,4,6,8,10,12,14,16,18,20,22,24,26,28,30,32,34,36,38,40,42,44,46,48,50,52,54,56,58,60,62,-1,64,66,68,70,72,74,76,78,80,82,84,86,88,90,92,94,96,98,100,102,104,106,108,110,112,-1,114,-1,-1,-1,-1,-1,-1,-1,-1,-1,-1,-1,-1,-1,-1,-1,-1,-1,-1,-1,-1,-1,-1,-1,-1,-1,-1,-1,-1,-1,-1,-1,-1,-1,-1,-1,-1,-1,-1,-1,-1,-1,-1,-1,-1,-1,-1,-1,-1,-1,-1,-1,-1,-1,-1,-1,-1],"split_conditions":[5.439E2,4.312E2,7.0688E2,3.5789E2,4.9043E2,6.3026E2,8.0702E2,3.3446E2,4.0022E2,4.7546E2,5.0275E2,5.9201E2,6.7411E2,7.5348E2,9.0201E2,3.0443E2,4.299E2,4.347E2,5.0103E2,4.4756E2,5.7024E2,1E0,5.8473E2,6.4703E2,7.811E2,7.811E2,5E0,5E0,6.7122E2,8.5789E2,8.98E2,-1.1275951E1,2.3E1,3.4834E2,3.2943E2,2.3E1,2.0452E2,1.1E1,4.089E2,1.4433E2,1.7E1,1.7E1,1E0,5.6339E2,1.8E1,5.9234E2,4.267E2,6.018E2,4.6727E2,6.3095E2,1E0,5.8034E2,5.1886E2,6.7734E2,8.2253E2,6.8756E2,2.3E1,8.85536E0,8.0448E2,1.3011606E1,1.5259852E1,1.5838397E1,1.9049686E1,-9.926593E0,-6.675883E0,-8.847169E0,-7.9023895E0,-7.3821726E0,-6.096944E0,-7.4278045E0,-5.110065E0,-5.92467E0,-3.2272942E0,-5.9452057E0,-4.6351123E0,-4.166185E0,-2.9934204E0,-4.123395E0,-2.4730527E0,-3.4143124E0,-1.7959467E0,-2.402992E0,-1.447849E0,-1.8773645E0,8.219466E-3,-2.9680384E-3,1.2133907E0,-1.7422673E0,7.749745E-1,-4.6165878E-1,1.427055E0,-9.091313E-2,2.4769866E0,1.1827244E0,2.3894622E0,2.627113E0,5.1854205E0,3.6809967E0,2.6999655E0,7.434687E0,5.536273E0,3.9116445E0,5.158145E0,6.3091645E0,8.989763E0,6.9195285E0,9.119543E0,6.0134945E0,1.0507745E1,8.3273E0,9.931015E0,7.62323E0,1.1484439E1,1.0514056E1,1.2198808E1],"split_indices":[6,6,6,6,7,6,6,7,7,6,6,6,6,6,6,6,7,0,7,7,0,8,7,7,4,4,8,8,7,6,0,0,8,6,6,8,12,8,6,12,8,8,10,7,8,0,0,0,0,5,8,0,0,7,0,7,8,0,0,0,0,0,0,0,0,0,0,0,0,0,0,0,0,0,0,0,0,0,0,0,0,0,0,0,0,0,0,0,0,0,0,0,0,0,0,0,0,0,0,0,0,0,0,0,0,0,0,0,0,0,0,0,0,0,0],"split_type":[0,0,0,0,0,0,0,0,0,0,0,0,0,0,0,0,0,0,0,0,0,0,0,0,0,0,0,0,0,0,0,0,0,0,0,0,0,0,0,0,0,0,0,0,0,0,0,0,0,0,0,0,0,0,0,0,0,0,0,0,0,0,0,0,0,0,0,0,0,0,0,0,0,0,0,0,0,0,0,0,0,0,0,0,0,0,0,0,0,0,0,0,0,0,0,0,0,0,0,0,0,0,0,0,0,0,0,0,0,0,0,0,0,0,0],"sum_hessian":[2.1076E4,1.2669E4,8.407E3,4.749E3,7.92E3,6.487E3,1.92E3,1.73E3,3.019E3,4.666E3,3.254E3,3.19E3,3.297E3,1.407E3,5.13E2,7.01E2,1.029E3,1.097E3,1.922E3,2.984E3,1.682E3,1.594E3,1.66E3,1.73E3,1.46E3,1.959E3,1.338E3,1.069E3,3.38E2,3.4E2,1.73E2,2.67E2,4.34E2,8.13E2,2.16E2,7.52E2,3.45E2,1.581E3,3.41E2,1.39E3,1.594E3,1.424E3,2.58E2,2.81E2,1.313E3,1.179E3,4.81E2,1.591E3,1.39E2,1.411E3,4.9E1,1.897E3,6.2E1,5.34E2,8.04E2,4.52E2,6.17E2,5E1,2.88E2,1.76E2,1.64E2,5.7E1,1.16E2,4.23E2,1.1E1,6.01E2,2.12E2,4.5E1,1.71E2,7.06E2,4.6E1,3.06E2,3.9E1,7.29E2,8.52E2,1.98E2,1.43E2,1.282E3,1.08E2,1.171E3,4.23E2,1.131E3,2.93E2,3E1,2.28E2,1.74E2,1.07E2,1.122E3,1.91E2,8.55E2,3.24E2,1.64E2,3.17E2,9.06E2,6.85E2,7.2E1,6.7E1,8.96E2,5.15E2,1.5E1,3.4E1,3.86E2,1.511E3,1.3E1,4.9E1,4.73E2,6.1E1,7.93E2,1.1E1,2.83E2,1.69E2,5.95E2,2.2E1,2.21E2,6.7E1],"tree_param":{"num_deleted":"0","num_feature":"13","num_nodes":"115","size_leaf_vector":"1"}},{"base_weights":[-1.3381745E-1,-3.6239353E1,4.3690994E1,-6.9757256E1,-2.3737574E1,2.6036098E1,7.396707E1,-8.309437E1,-5.4000595E1,-3.0872932E1,2.1804068E0,1.3254666E1,4.4798416E1,6.300033E1,1.3493733E2,-9.636269E1,-7.655591E1,-5.929761E1,-4.137896E1,-4.4710323E1,-2.546623E1,-5.5525846E0,1.5510031E1,-5.498456E0,2.3895674E1,3.038936E1,5.4927982E1,4.595742E1,7.5054886E1,1.1335552E2,1.5403282E2,-1.047119E1,-9.275478E1,-8.01203E1,-6.909052E1,-6.518106E1,-5.162401E1,-2.2023922E1,-4.5617046E1,-5.1175713E1,-3.7579884E1,-3.3358612E1,-1.8514307E1,-1.0555523E1,1.9789991E-1,7.573327E0,1.9982033E1,-1.2821079E1,1.3482294E1,1.5194884E1,3.1831802E1,2.407016E1,4.465219E1,5.0950596E1,9.4247955E1,3.5922318E1,5.2328247E1,7.029997E1,9.865168E1,9.8103294E1,1.2526778E1,1.4220845E1,1.6658165E2,-9.455624E0,-7.8677163E0,-8.193999E0,-6.9742312E0,-7.3434854E0,-6.526737E0,-6.6688476E0,-4.8198333E0,-5.925911E0,-4.500562E0,-3.074088E0,-1.1807181E0,-5.1988316E0,-4.2332606E0,-6.0044856E0,-4.1250353E0,-4.064368E0,-2.4752696E0,-3.2067494E0,-4.8641305E0,-2.084616E0,-8.6172926E-1,-1.6914071E0,-4.3258625E-1,4.3678018E-1,-1.0561099E0,5.664145E-1,2.391446E0,3.0941312E0,1.6785606E0,-2.1465394E0,-6.0877854E-1,9.362378E-1,1.9769614E0,6.2674224E-1,2.2475033E0,2.296679E0,3.7734337E0,1.3401542E0,3.5720494E0,3.370261E0,5.19467E0,4.322435E0,5.4710636E0,8.149976E0,1.0574078E1,4.4130416E0,3.313994E0,4.889381E0,6.0569854E0,6.639972E0,7.930703E0,9.1945505E0,1.1341106E1,1.0767294E1,8.834196E0,1.4299573E1,1.7476828E1],"categories":[],"categories_nodes":[],"categories_segments":[],"categories_sizes":[],"default_left":[0,0,0,0,0,0,0,0,0,0,0,0,0,0,0,0,0,0,0,0,0,0,0,0,0,0,0,0,0,0,0,0,0,0,0,0,0,0,0,0,0,0,0,0,0,0,0,0,0,0,0,0,0,0,0,0,0,0,0,0,0,0,0,0,0,0,0,0,0,0,0,0,0,0,0,0,0,0,0,0,0,0,0,0,0,0,0,0,0,0,0,0,0,0,0,0,0,0,0,0,0,0,0,0,0,0,0,0,0,0,0,0,0,0,0,0,0,0,0,0,0],"id":8,"left_children":[1,3,5,7,9,11,13,15,17,19,21,23,25,27,29,31,33,35,37,39,41,43,45,47,49,51,53,55,57,59,61,-1,63,65,67,69,71,73,75,77,79,81,83,85,87,89,91,93,95,97,99,101,103,105,107,109,111,113,115,117,-1,-1,119,-1,-1,-1,-1,-1,-1,-1,-1,-1,-1,-1,-1,-1,-1,-1,-1,-1,-1,-1,-1,-1,-1,-1,-1,-1,-1,-1,-1,-1,-1,-1,-1,-1,-1,-1,-1,-1,-1,-1,-1,-1,-1,-1,-1,-1,-1,-1,-1,-1,-1,-1,-1,-1,-1,-1,-1,-1,-1],"loss_changes":[3.3309384E7,4.834818E6,5.080826E6,6.54313E5,1.5549955E6,1.440174E6,2.333074E6,1.39742E5,9.381E4,4.92107E5,1.8727653E5,7.1353206E5,3.53583E5,6.06709E5,2.0217E5,7.016E3,2.4811E4,4.23125E4,3.417875E4,8.340125E4,2.596125E5,3.308784E4,2.3519719E4,1.8016338E5,1.57016E5,8.967894E4,2.185095E5,7.69395E4,1.88053E5,3.383725E4,1.78265E4,0E0,2.6115E3,8.7355E3,1.438125E3,1.134075E4,1.9758875E4,6.6684336E3,5.1348125E3,8.27255E4,3.3728375E4,4.223675E4,5.8067375E4,2.4285836E4,2.4092598E4,7.411552E3,1.4398844E4,5.4287984E4,9.1630625E3,7.0698875E4,6.15E4,8.652147E4,2.2841188E4,3.53625E4,1.0410125E4,9.53775E3,1.8313125E4,4.56575E4,1.815675E4,1.30425E3,0E0,0E0,7.85E1,0E0,0E0,0E0,0E0,0E0,0E0,0E0,0E0,0E0,0E0,0E0,0E0,0E0,0E0,0E0,0E0,0E0,0E0,0E0,0E0,0E0,0E0,0E0,0E0,0E0,0E0,0E0,0E0,0E0,0E0,0E0,0E0,0E0,0E0,0E0,0E0,0E0,0E0,0E0,0E0,0E0,0E0,0E0,0E0,0E0,0E0,0E0,0E0,0E0,0E0,0E0,0E0,0E0,0E0,0E0,0E0,0E0,0E0],"parents":[2147483647,0,0,1,1,2,2,3,3,4,4,5,5,6,6,7,7,8,8,9,9,10,10,11,11,12,12,13,13,14,14,15,15,16,16,17,17,18,18,19,19,20,20,21,21,22,22,23,23,24,24,25,25,26,26,27,27,28,28,29,29,30,30,32,32,33,33,34,34,35,35,36,36,37,37,38,38,39,39,40,40,41,41,42,42,43,43,44,44,45,45,46,46,47,47,48,48,49,49,50,50,51,51,52,52,53,53,54,54,55,55,56,56,57,57,58,58,59,59,62,62],"right_children":[2,4,6,8,10,12,14,16,18,20,22,24,26,28,30,32,34,36,38,40,42,44,46,48,50,52,54,56,58,60,62,-1,64,66,68,70,72,74,76,78,80,82,84,86,88,90,92,94,96,98,100,102,104,106,108,110,112,114,116,118,-1,-1,120,-1,-1,-1,-1,-1,-1,-1,-1,-1,-1,-1,-1,-1,-1,-1,-1,-1,-1,-1,-1,-1,-1,-1,-1,-1,-1,-1,-1,-1,-1,-1,-1,-1,-1,-1,-1,-1,-1,-1,-1,-1,-1,-1,-1,-1,-1,-1,-1,-1,-1,-1,-1,-1,-1,-1,-1,-1,-1],"split_conditions":[5.3258E2,4.1266E2,6.7188E2,3.8691E2,5.3388E2,6.2881E2,7.4131E2,3.2747E2,4.5976E2,4.2168E2,6.2043E2,4.9555E2,5.4443E2,6.134E2,8.4682E2,2.9991E2,3.721E2,3.8806E2,2E0,1E1,4.6198E2,4.9498E2,5.0103E2,1.6E1,5.7562E2,6.7734E2,7.5069E2,5.6947E2,7.8128E2,7.811E2,9.1844E2,-1.047119E1,2.1E1,2.1E1,3.5066E2,2.3E1,1.1E1,3.8553E2,1.1E1,4.7221E2,4.658E2,5.3258E2,1.7E1,1.7E1,6E0,7.1306E2,2E0,3.8904E2,6.0544E2,5.9735E2,5.8988E2,9E0,7E0,5.9735E2,8E0,2E0,7.3707E2,6.8756E2,8.7341E2,5E0,1.2526778E1,1.4220845E1,8.0359E2,-9.455624E0,-7.8677163E0,-8.193999E0,-6.9742312E0,-7.3434854E0,-6.526737E0,-6.6688476E0,-4.8198333E0,-5.925911E0,-4.500562E0,-3.074088E0,-1.1807181E0,-5.1988316E0,-4.2332606E0,-6.0044856E0,-4.1250353E0,-4.064368E0,-2.4752696E0,-3.2067494E0,-4.8641305E0,-2.084616E0,-8.6172926E-1,-1.6914071E0,-4.3258625E-1,4.3678018E-1,-1.0561099E0,5.664145E-1,2.391446E0,3.0941312E0,1.6785606E0,-2.1465394E0,-6.0877854E-1,9.362378E-1,1.9769614E0,6.2674224E-1,2.2475033E0,2.296679E0,3.7734337E0,1.3401542E0,3.5720494E0,3.370261E0,5.19467E0,4.322435E0,5.4710636E0,8.149976E0,1.0574078E1,4.4130416E0,3.313994E0,4.889381E0,6.0569854E0,6.639972E0,7.930703E0,9.1945505E0,1.1341106E1,1.0767294E1,8.834196E0,1.4299573E1,1.7476828E1],"split_indices":[1,1,0,0,0,1,1,1,0,0,0,0,0,1,0,1,1,1,8,8,1,1,1,8,1,1,1,1,0,1,0,0,8,8,0,8,8,1,8,1,1,4,8,8,9,0,9,0,1,0,0,8,8,0,8,9,0,1,0,8,0,0,1,0,0,0,0,0,0,0,0,0,0,0,0,0,0,0,0,0,0,0,0,0,0,0,0,0,0,0,0,0,0,0,0,0,0,0,0,0,0,0,0,0,0,0,0,0,0,0,0,0,0,0,0,0,0,0,0,0,0],"split_type":[0,0,0,0,0,0,0,0,0,0,0,0,0,0,0,0,0,0,0,0,0,0,0,0,0,0,0,0,0,0,0,0,0,0,0,0,0,0,0,0,0,0,0,0,0,0,0,0,0,0,0,0,0,0,0,0,0,0,0,0,0,0,0,0,0,0,0,0,0,0,0,0,0,0,0,0,0,0,0,0,0,0,0,0,0,0,0,0,0,0,0,0,0,0,0,0,0,0,0,0,0,0,0,0,0,0,0,0,0,0,0,0,0,0,0,0,0,0,0,0,0],"sum_hessian":[2.1049E4,1.1541E4,9.508E3,3.134E3,8.407E3,6.007E3,3.501E3,1.695E3,1.439E3,6.592E3,1.815E3,3.574E3,2.433E3,2.969E3,5.32E2,5.55E2,1.14E3,1.011E3,4.28E2,1.85E3,4.742E3,1.149E3,6.66E2,1.294E3,2.28E3,1.006E3,1.427E3,1.232E3,1.737E3,2.53E2,2.79E2,1.59E2,3.96E2,7.65E2,3.75E2,5.68E2,4.43E2,7.8E1,3.5E2,9.67E2,8.83E2,2.219E3,2.523E3,6.14E2,5.35E2,2.41E2,4.25E2,9.34E2,3.6E2,1.089E3,1.191E3,6.99E2,3.07E2,1.298E3,1.29E2,4.81E2,7.51E2,1.449E3,2.88E2,1.15E2,1.38E2,1.5E2,1.29E2,3.46E2,5E1,6.45E2,1.2E2,1.67E2,2.08E2,5.19E2,4.9E1,2.02E2,2.41E2,4.1E1,3.7E1,1.14E2,2.36E2,5.08E2,4.59E2,7.11E2,1.72E2,2.049E3,1.7E2,2.041E3,4.82E2,3.03E2,3.11E2,3.86E2,1.49E2,2.17E2,2.4E1,9.4E1,3.31E2,4.08E2,5.26E2,2.19E2,1.41E2,4.9E2,5.99E2,4.78E2,7.13E2,3.66E2,3.33E2,1.25E2,1.82E2,4.29E2,8.69E2,6.5E1,6.4E1,1.18E2,3.63E2,5.35E2,2.16E2,1.017E3,4.32E2,2.03E2,8.5E1,5.3E1,6.2E1,3.8E1,9.1E1],"tree_param":{"num_deleted":"0","num_feature":"13","num_nodes":"121","size_leaf_vector":"1"}},{"base_weights":[-2.9713262E-2,-3.250802E1,4.2546764E1,-6.258494E1,-2.0146952E1,2.95908E1,8.2506195E1,-8.080286E1,-5.435807E1,-3.0961187E1,-1.0095084E1,1.4465953E1,4.0894207E1,6.961156E1,1.25587204E2,-8.791894E1,-7.44592E1,-5.9385075E1,-4.4617737E1,-3.7913788E1,-2.5149204E1,-1.3857966E1,1.1003668E0,2.5741262E0,1.7530552E1,3.306066E1,4.707888E1,6.3872967E1,8.138494E1,1.1427791E2,1.4826582E2,-1.0179789E1,-8.505319E1,-7.716082E1,-6.375018E1,-6.441186E1,-5.1534603E1,-4.7891556E1,-3.4496838E1,-3.9072353E1,-2.4401228E1,-2.68984E1,-1.1960579E1,-1.6572794E1,3.6687777E0,-8.033724E0,5.2105937E0,-5.117746E0,1.1031937E1,1.3746238E1,2.6176146E1,3.2160305E1,6.701167E1,5.316125E1,4.32425E1,6.9986946E1,5.9369453E1,7.336855E1,8.621897E1,1.0448171E2,1.2346959E1,1.2819089E1,1.5528519E1,-8.827727E0,-7.8968515E0,-6.19655E0,-7.8433127E0,-6.670425E0,-5.3354225E0,-6.949308E0,-6.033278E0,-2.6471896E0,-5.2196016E0,-4.951774E0,-3.2255852E0,-3.7443612E0,-2.9840212E0,-4.7161956E0,-3.71547E0,-3.4216678E0,-1.2204636E0,-3.2820423E0,-2.4935517E0,-2.1433747E0,-7.3691195E-1,-1.8952849E0,-5.600154E-1,-6.132213E-1,1.1978537E0,-1.1854048E0,-3.5375386E-1,2.4575384E-1,1.531196E0,-6.0146715E-2,-1.2526125E0,1.1922569E0,-8.7177956E-1,3.8569635E-1,1.9433047E0,3.658282E0,2.391531E0,3.1468794E0,5.68295E0,4.650227E0,7.502933E0,4.938808E0,6.626358E0,4.266088E0,7.6460547E0,6.4521356E0,7.7102213E0,5.8350005E0,8.828602E0,7.9429917E0,6.490027E0,8.430682E0,1.102822E1,8.055464E0,1.0706539E1],"categories":[],"categories_nodes":[],"categories_segments":[],"categories_sizes":[],"default_left":[0,0,0,0,0,0,0,0,0,0,0,0,0,0,0,0,0,0,0,0,0,0,0,0,0,0,0,0,0,0,0,0,0,0,0,0,0,0,0,0,0,0,0,0,0,0,0,0,0,0,0,0,0,0,0,0,0,0,0,0,0,0,0,0,0,0,0,0,0,0,0,0,0,0,0,0,0,0,0,0,0,0,0,0,0,0,0,0,0,0,0,0,0,0,0,0,0,0,0,0,0,0,0,0,0,0,0,0,0,0,0,0,0,0,0,0,0,0,0],"id":9,"left_children":[1,3,5,7,9,11,13,15,17,19,21,23,25,27,29,31,33,35,37,39,41,43,45,47,49,51,53,55,57,59,61,-1,63,65,67,69,71,73,75,77,79,81,83,85,87,89,91,93,95,97,99,101,103,105,107,109,111,113,115,117,-1,-1,-1,-1,-1,-1,-1,-1,-1,-1,-1,-1,-1,-1,-1,-1,-1,-1,-1,-1,-1,-1,-1,-1,-1,-1,-1,-1,-1,-1,-1,-1,-1,-1,-1,-1,-1,-1,-1,-1,-1,-1,-1,-1,-1,-1,-1,-1,-1,-1,-1,-1,-1,-1,-1,-1,-1,-1,-1],"loss_changes":[2.9086066E7,4.434843E6,4.709772E6,5.16415E5,9.190955E5,1.1747685E6,1.228922E6,4.2145E4,1.14709E5,1.63664E5,1.8474419E5,1.0717019E5,1.89029E5,1.10792E5,1.143475E5,1.132925E4,1.17605E4,5.89405E4,2.55095E4,2.804925E4,5.0934875E4,1.5622638E5,4.1489254E4,3.9351113E4,7.616281E4,5.0992875E4,4.8934E4,2.77445E4,1.532025E4,1.8232E4,3.598E3,0E0,1.3105E3,3.942E3,1.7571875E2,1.565075E4,8.904625E3,1.4082875E4,1.67525E3,2.468875E4,1.7415297E4,2.1971E4,1.1235035E4,7.411169E4,3.599078E4,5.8481953E3,2.1151521E4,1.0597438E4,5.1701094E3,9.153509E4,1.58473125E4,2.713475E4,3.7340625E3,3.849025E4,2.28475E4,1.391125E4,1.470275E4,5.968875E3,6.46525E3,2.11325E3,0E0,0E0,0E0,0E0,0E0,0E0,0E0,0E0,0E0,0E0,0E0,0E0,0E0,0E0,0E0,0E0,0E0,0E0,0E0,0E0,0E0,0E0,0E0,0E0,0E0,0E0,0E0,0E0,0E0,0E0,0E0,0E0,0E0,0E0,0E0,0E0,0E0,0E0,0E0,0E0,0E0,0E0,0E0,0E0,0E0,0E0,0E0,0E0,0E0,0E0,0E0,0E0,0E0,0E0,0E0,0E0,0E0,0E0,0E0],"parents":[2147483647,0,0,1,1,2,2,3,3,4,4,5,5,6,6,7,7,8,8,9,9,10,10,11,11,12,12,13,13,14,14,15,15,16,16,17,17,18,18,19,19,20,20,21,21,22,22,23,23,24,24,25,25,26,26,27,27,28,28,29,29,30,30,32,32,33,33,34,34,35,35,36,36,37,37,38,38,39,39,40,40,41,41,42,42,43,43,44,44,45,45,46,46,47,47,48,48,49,49,50,50,51,51,52,52,53,53,54,54,55,55,56,56,57,57,58,58,59,59],"right_children":[2,4,6,8,10,12,14,16,18,20,22,24,26,28,30,32,34,36,38,40,42,44,46,48,50,52,54,56,58,60,62,-1,64,66,68,70,72,74,76,78,80,82,84,86,88,90,92,94,96,98,100,102,104,106,108,110,112,114,116,118,-1,-1,-1,-1,-1,-1,-1,-1,-1,-1,-1,-1,-1,-1,-1,-1,-1,-1,-1,-1,-1,-1,-1,-1,-1,-1,-1,-1,-1,-1,-1,-1,-1,-1,-1,-1,-1,-1,-1,-1,-1,-1,-1,-1,-1,-1,-1,-1,-1,-1,-1,-1,-1,-1,-1,-1,-1,-1,-1],"split_conditions":[5.2615E2,4.0725E2,6.9731E2,3.464E2,4.6763E2,6.0559E2,8.0702E2,3.2294E2,4.273E2,4.4602E2,5.2794E2,5.1988E2,6.4772E2,7.3791E2,9.0201E2,2.7977E2,2.1E1,3.8122E2,4.997E2,5.0342E2,5.401E2,5.8028E2,1.4794E2,6.1145E2,1.7E1,7.2064E2,5E0,5E0,6.9899E2,8.5789E2,8.98E2,-1.0179789E1,3.3446E2,6E0,2.3E1,3.5046E2,1E0,1.4E1,5.2316E2,1.1E1,6.89E1,4.3571E2,6.017E1,1.7E1,4.0754E2,5.0536E2,5.6147E2,6E0,2.1E1,5.2979E2,1.9E1,7.5197E2,5.2408E2,6.5077E2,7.9249E2,6.7526E2,2.3E1,2E1,2.3E1,6.9899E2,1.2346959E1,1.2819089E1,1.5528519E1,-8.827727E0,-7.8968515E0,-6.19655E0,-7.8433127E0,-6.670425E0,-5.3354225E0,-6.949308E0,-6.033278E0,-2.6471896E0,-5.2196016E0,-4.951774E0,-3.2255852E0,-3.7443612E0,-2.9840212E0,-4.7161956E0,-3.71547E0,-3.4216678E0,-1.2204636E0,-3.2820423E0,-2.4935517E0,-2.1433747E0,-7.3691195E-1,-1.8952849E0,-5.600154E-1,-6.132213E-1,1.1978537E0,-1.1854048E0,-3.5375386E-1,2.4575384E-1,1.531196E0,-6.0146715E-2,-1.2526125E0,1.1922569E0,-8.7177956E-1,3.8569635E-1,1.9433047E0,3.658282E0,2.391531E0,3.1468794E0,5.68295E0,4.650227E0,7.502933E0,4.938808E0,6.626358E0,4.266088E0,7.6460547E0,6.4521356E0,7.7102213E0,5.8350005E0,8.828602E0,7.9429917E0,6.490027E0,8.430682E0,1.102822E1,8.055464E0,1.0706539E1],"split_indices":[6,6,6,1,1,6,6,1,1,6,0,1,6,6,6,6,8,6,1,0,0,1,12,0,8,1,8,8,1,6,0,0,0,9,8,6,8,8,1,8,12,1,12,8,0,6,1,9,8,0,8,0,0,1,0,1,8,8,8,1,0,0,0,0,0,0,0,0,0,0,0,0,0,0,0,0,0,0,0,0,0,0,0,0,0,0,0,0,0,0,0,0,0,0,0,0,0,0,0,0,0,0,0,0,0,0,0,0,0,0,0,0,0,0,0,0,0,0,0],"split_type":[0,0,0,0,0,0,0,0,0,0,0,0,0,0,0,0,0,0,0,0,0,0,0,0,0,0,0,0,0,0,0,0,0,0,0,0,0,0,0,0,0,0,0,0,0,0,0,0,0,0,0,0,0,0,0,0,0,0,0,0,0,0,0,0,0,0,0,0,0,0,0,0,0,0,0,0,0,0,0,0,0,0,0,0,0,0,0,0,0,0,0,0,0,0,0,0,0,0,0,0,0,0,0,0,0,0,0,0,0,0,0,0,0,0,0,0,0,0,0],"sum_hessian":[2.1032E4,1.1931E4,9.101E3,3.474E3,8.457E3,6.874E3,2.227E3,1.078E3,2.396E3,4.073E3,4.384E3,2.941E3,3.933E3,1.716E3,5.11E2,5.02E2,5.76E2,1.577E3,8.19E2,1.852E3,2.221E3,3.281E3,1.103E3,6.03E2,2.338E3,1.738E3,2.195E3,1.158E3,5.58E2,3.45E2,1.66E2,8E1,4.22E2,4.55E2,1.21E2,9.57E2,6.2E2,6.16E2,2.03E2,1.704E3,1.48E2,1.96E3,2.61E2,2.841E3,4.4E2,3.42E2,7.61E2,3.16E2,2.87E2,1.628E3,7.1E2,1.695E3,4.3E1,8.44E2,1.351E3,4.85E2,6.73E2,2.16E2,3.42E2,1.73E2,1.72E2,4.8E1,1.18E2,2.67E2,1.55E2,3.9E1,4.16E2,9E1,3.1E1,4.19E2,5.38E2,1.7E1,6.03E2,5.56E2,6E1,1.2E2,8.3E1,3.22E2,1.382E3,8.1E1,6.7E1,4.84E2,1.476E3,8.4E1,1.77E2,2.334E3,5.07E2,2.02E2,2.38E2,1.84E2,1.58E2,5.99E2,1.62E2,1.97E2,1.19E2,2.75E2,1.2E1,5.95E2,1.033E3,1.24E2,5.86E2,1.651E3,4.4E1,1.4E1,2.9E1,6.59E2,1.85E2,1.33E3,2.1E1,2.8E2,2.05E2,6.53E2,2E1,1.21E2,9.5E1,3.21E2,2.1E1,2E1,1.53E2],"tree_param":{"num_deleted":"0","num_feature":"13","num_nodes":"119","size_leaf_vector":"1"}},{"base_weights":[2.0110744E-1,-3.1113237E1,3.372412E1,-5.477157E1,-1.996698E1,2.2090092E1,6.5205826E1,-6.6716934E1,-4.2522736E1,-2.7710539E1,-7.0509825E0,5.9166975E0,3.606392E1,5.5091537E1,1.1324962E2,-7.6891075E1,-6.1229416E1,-4.75614E1,-3.49978E1,-3.8331104E1,-2.3910854E1,-1.1967262E1,7.4827356E0,-1.4187065E1,1.1485183E1,2.5193462E1,4.563319E1,3.732442E1,6.326664E1,9.560283E1,1.2828613E2,-8.158303E0,-7.145083E1,-6.3895996E1,-5.2132866E1,-5.3220547E1,-4.1897636E1,-1.7488892E1,-3.7519646E1,-4.335464E1,-3.0865883E1,-2.9102043E1,-1.916772E1,-2.079841E1,-9.590786E0,1.289858E0,1.286053E1,-2.19954E1,-4.639757E0,3.786162E0,1.8960894E1,1.854352E1,3.1229643E1,3.9285088E1,5.4621197E1,3.3397766E1,5.6103767E1,5.92344E1,9.42939E1,8.991893E0,1.0475192E1,1.1535563E1,1.3926444E1,-7.326101E0,-6.172017E0,-7.0692344E0,-6.170366E0,-5.541227E0,-4.4405684E0,-5.4915385E0,-3.692148E0,-4.8023E0,-3.7849152E0,-2.5033514E0,-9.889928E-1,-4.4560905E0,-3.405337E0,-5.099271E0,-3.7677453E0,-2.4762027E0,-3.7517955E0,-4.153787E0,-2.7747548E0,-2.0944242E0,-1.1105474E0,-2.3357816E0,-1.1209753E0,-1.2540215E0,-2.7688953E-1,-8.3560276E-1,4.7815338E-1,1.2073387E0,4.3430963E0,-2.3249383E0,5.6212316E-3,-7.1576697E-1,6.827187E-1,4.5684546E-2,9.7946805E-1,1.3247726E0,2.729472E0,1.0109923E0,2.253986E0,2.474714E0,3.5505066E0,3.4431527E0,4.2876487E0,5.2421412E0,6.793219E0,2.5206745E0,4.3720045E0,4.531213E0,6.120173E0,5.0697227E0,6.618278E0,1.1140329E1,8.909789E0],"categories":[],"categories_nodes":[],"categories_segments":[],"categories_sizes":[],"default_left":[0,0,0,0,0,0,0,0,0,0,0,0,0,0,0,0,0,0,0,0,0,0,0,0,0,0,0,0,0,0,0,0,0,0,0,0,0,0,0,0,0,0,0,0,0,0,0,0,0,0,0,0,0,0,0,0,0,0,0,0,0,0,0,0,0,0,0,0,0,0,0,0,0,0,0,0,0,0,0,0,0,0,0,0,0,0,0,0,0,0,0,0,0,0,0,0,0,0,0,0,0,0,0,0,0,0,0,0,0,0,0,0,0,0,0,0,0],"id":10,"left_children":[1,3,5,7,9,11,13,15,17,19,21,23,25,27,29,31,33,35,37,39,41,43,45,47,49,51,53,55,57,59,61,-1,63,65,67,69,71,73,75,77,79,81,83,85,87,89,91,93,95,97,99,101,103,105,107,109,111,113,115,-1,-1,-1,-1,-1,-1,-1,-1,-1,-1,-1,-1,-1,-1,-1,-1,-1,-1,-1,-1,-1,-1,-1,-1,-1,-1,-1,-1,-1,-1,-1,-1,-1,-1,-1,-1,-1,-1,-1,-1,-1,-1,-1,-1,-1,-1,-1,-1,-1,-1,-1,-1,-1,-1,-1,-1,-1,-1],"loss_changes":[2.2002784E7,2.856635E6,3.706191E6,5.04872E5,7.3671775E5,1.6706318E6,1.320815E6,9.3261E4,6.33905E4,1.849515E5,1.9751139E5,3.839187E5,4.11396E5,3.255985E5,1.134875E5,9.75175E3,2.4431E4,3.0614E4,2.9893438E4,4.4106625E4,8.303075E4,4.3135656E4,2.3261508E4,5.535942E4,1.5446288E5,7.4036625E4,1.18121E5,5.0767625E4,1.876925E5,2.10575E3,1.982375E4,0E0,5.90625E2,8.7515E3,4.244625E3,1.2024125E4,1.09945625E4,4.851414E3,1.32164375E4,2.9377625E4,1.9001E4,2.61115E4,2.5215688E4,1.0459234E4,3.2740344E4,1.1019377E4,8.469766E3,1.13134375E4,9.750146E3,2.6480139E4,6.4482656E4,2.9663844E4,2.6082375E4,2.0113E4,2.19015E4,4.902925E4,3.9280312E3,7.7901E4,5.700625E3,0E0,0E0,0E0,0E0,0E0,0E0,0E0,0E0,0E0,0E0,0E0,0E0,0E0,0E0,0E0,0E0,0E0,0E0,0E0,0E0,0E0,0E0,0E0,0E0,0E0,0E0,0E0,0E0,0E0,0E0,0E0,0E0,0E0,0E0,0E0,0E0,0E0,0E0,0E0,0E0,0E0,0E0,0E0,0E0,0E0,0E0,0E0,0E0,0E0,0E0,0E0,0E0,0E0,0E0,0E0,0E0,0E0,0E0],"parents":[2147483647,0,0,1,1,2,2,3,3,4,4,5,5,6,6,7,7,8,8,9,9,10,10,11,11,12,12,13,13,14,14,15,15,16,16,17,17,18,18,19,19,20,20,21,21,22,22,23,23,24,24,25,25,26,26,27,27,28,28,29,29,30,30,32,32,33,33,34,34,35,35,36,36,37,37,38,38,39,39,40,40,41,41,42,42,43,43,44,44,45,45,46,46,47,47,48,48,49,49,50,50,51,51,52,52,53,53,54,54,55,55,56,56,57,57,58,58],"right_children":[2,4,6,8,10,12,14,16,18,20,22,24,26,28,30,32,34,36,38,40,42,44,46,48,50,52,54,56,58,60,62,-1,64,66,68,70,72,74,76,78,80,82,84,86,88,90,92,94,96,98,100,102,104,106,108,110,112,114,116,-1,-1,-1,-1,-1,-1,-1,-1,-1,-1,-1,-1,-1,-1,-1,-1,-1,-1,-1,-1,-1,-1,-1,-1,-1,-1,-1,-1,-1,-1,-1,-1,-1,-1,-1,-1,-1,-1,-1,-1,-1,-1,-1,-1,-1,-1,-1,-1,-1,-1,-1,-1,-1,-1,-1,-1,-1,-1],"split_conditions":[5.2141E2,4.1897E2,6.6356E2,3.8691E2,4.9314E2,5.9948E2,8.0448E2,3.3125E2,4.4746E2,4.0754E2,5.8988E2,4.1491E2,5.9055E2,5.9735E2,7.811E2,3.181E2,3.8553E2,3.8806E2,2E0,1E1,4.5825E2,4.5367E2,6.3743E2,5.8173E2,5.9373E2,6.6787E2,6.9665E2,8.0359E2,7.811E2,7.4131E2,8.98E2,-8.158303E0,2.1E1,3.1416E2,1.1E1,2.3E1,1.1E1,3.9059E2,1.1E1,4.6092E2,6E0,1E1,1.7E1,7.549E1,1.7E1,1.6259E2,7.7302E2,1.3E1,8E0,1.1E1,5.2049E2,2E0,5.5507E2,6.4396E2,7.8128E2,9E0,4.7699E2,6.8889E2,2E0,8.991893E0,1.0475192E1,1.1535563E1,1.3926444E1,-7.326101E0,-6.172017E0,-7.0692344E0,-6.170366E0,-5.541227E0,-4.4405684E0,-5.4915385E0,-3.692148E0,-4.8023E0,-3.7849152E0,-2.5033514E0,-9.889928E-1,-4.4560905E0,-3.405337E0,-5.099271E0,-3.7677453E0,-2.4762027E0,-3.7517955E0,-4.153787E0,-2.7747548E0,-2.0944242E0,-1.1105474E0,-2.3357816E0,-1.1209753E0,-1.2540215E0,-2.7688953E-1,-8.3560276E-1,4.7815338E-1,1.2073387E0,4.3430963E0,-2.3249383E0,5.6212316E-3,-7.1576697E-1,6.827187E-1,4.5684546E-2,9.7946805E-1,1.3247726E0,2.729472E0,1.0109923E0,2.253986E0,2.474714E0,3.5505066E0,3.4431527E0,4.2876487E0,5.2421412E0,6.793219E0,2.5206745E0,4.3720045E0,4.531213E0,6.120173E0,5.0697227E0,6.618278E0,1.1140329E1,8.909789E0],"split_indices":[1,1,1,0,0,0,0,1,0,0,0,0,1,0,1,0,1,1,8,8,1,1,0,1,1,0,0,3,1,1,0,0,8,0,8,8,8,1,8,1,9,8,8,12,8,12,0,8,8,8,0,8,1,0,0,8,0,0,9,0,0,0,0,0,0,0,0,0,0,0,0,0,0,0,0,0,0,0,0,0,0,0,0,0,0,0,0,0,0,0,0,0,0,0,0,0,0,0,0,0,0,0,0,0,0,0,0,0,0,0,0,0,0,0,0,0,0],"split_type":[0,0,0,0,0,0,0,0,0,0,0,0,0,0,0,0,0,0,0,0,0,0,0,0,0,0,0,0,0,0,0,0,0,0,0,0,0,0,0,0,0,0,0,0,0,0,0,0,0,0,0,0,0,0,0,0,0,0,0,0,0,0,0,0,0,0,0,0,0,0,0,0,0,0,0,0,0,0,0,0,0,0,0,0,0,0,0,0,0,0,0,0,0,0,0,0,0,0,0,0,0,0,0,0,0,0,0,0,0,0,0,0,0,0,0,0,0],"sum_hessian":[2.0958E4,1.0836E4,1.0122E4,3.469E3,7.367E3,7.392E3,2.73E3,1.754E3,1.715E3,4.605E3,2.762E3,3.427E3,3.965E3,2.257E3,4.73E2,6.1E2,1.144E3,1.024E3,6.91E2,1.211E3,3.394E3,2.064E3,6.98E2,7.43E2,2.684E3,1.858E3,2.107E3,7.13E2,1.544E3,2.21E2,2.52E2,3.2E2,2.9E2,8.8E2,2.64E2,5.08E2,5.16E2,8.8E1,6.03E2,7.21E2,4.9E2,1.618E3,1.776E3,4.36E2,1.628E3,3.25E2,3.73E2,4.08E2,3.35E2,1.323E3,1.361E3,8.86E2,9.72E2,1.238E3,8.69E2,5.92E2,1.21E2,1.369E3,1.75E2,1.43E2,7.8E1,1.21E2,1.31E2,2.39E2,5.1E1,2.07E2,6.73E2,1.81E2,8.3E1,4.58E2,5E1,2.01E2,3.15E2,4.3E1,4.5E1,1.95E2,4.08E2,3.04E2,4.17E2,2.58E2,2.32E2,1.56E2,1.462E3,1.454E3,3.22E2,3.43E2,9.3E1,1.136E3,4.92E2,8.6E1,2.39E2,3.65E2,8E0,3.86E2,2.2E1,2.75E2,6E1,8.52E2,4.71E2,8.09E2,5.52E2,2.86E2,6E2,3.89E2,5.83E2,5.31E2,7.07E2,7.5E2,1.19E2,3.32E2,2.6E2,4.2E1,7.9E1,6.18E2,7.51E2,3.6E1,1.39E2],"tree_param":{"num_deleted":"0","num_feature":"13","num_nodes":"117","size_leaf_vector":"1"}},{"base_weights":[-3.538132E-2,-2.6233551E1,3.2729206E1,-4.9344723E1,-1.6305677E1,2.5359383E1,7.4117256E1,-6.1987732E1,-3.96027E1,-2.3341879E1,-1.4425253E0,1.2456465E1,3.9468624E1,5.991972E1,1.0518316E2,-6.826906E1,-5.506979E1,-4.534097E1,-3.288034E1,-3.3322887E1,-1.9463814E1,-6.2727895E0,1.3319525E1,-6.2974124E0,1.7944973E1,2.8445953E1,4.7394955E1,5.4503273E1,8.224935E1,9.000497E1,1.1404986E2,-7.8639903E0,-6.548171E1,-5.722334E1,-4.8658813E1,-5.0430737E1,-3.942242E1,-1.5908404E1,-3.4758118E1,-3.7304264E1,-2.7505827E1,-2.344032E1,-1.3534007E1,-1.0295127E1,-4.9181107E-1,1.1026175E1,2.1758862E1,-1.3268475E1,1.4238461E0,1.0487101E1,2.6370283E1,2.5570711E1,3.7442E1,4.135982E1,5.5513798E1,4.501637E1,6.549871E1,6.627018E0,8.983256E0,9.327466E1,7.5005693E0,1.0505399E1,1.2575325E1,-6.737804E0,-5.5105634E0,-5.8148966E0,-4.306551E0,-4.552269E0,-5.775026E0,-5.2036476E0,-3.5939782E0,-4.421442E0,-3.4990323E0,-2.3147476E0,-8.9335775E-1,-4.0633287E0,-3.191057E0,-4.282642E0,-3.0023162E0,-3.102682E0,-2.3025417E0,-3.2073495E0,-2.1963804E0,-1.5349643E0,-5.125522E-1,-1.3908453E0,-4.5929566E-1,-3.3045772E-1,5.9438354E-1,4.5537812E-1,1.3918176E0,2.0117033E0,4.936186E0,-1.6495596E0,4.6115008E-1,-2.1351941E-1,1.3114884E0,4.2772475E-1,1.4645104E0,1.9629334E0,3.098107E0,1.4528903E0,2.8224797E0,4.1669083E0,3.2737806E0,3.8058584E0,4.5912776E0,5.2855954E0,7.1964707E0,3.657236E0,5.060071E0,7.2703743E0,5.7109504E0,4.3441963E0,9.408971E0],"categories":[],"categories_nodes":[],"categories_segments":[],"categories_sizes":[],"default_left":[0,0,0,0,0,0,0,0,0,0,0,0,0,0,0,0,0,0,0,0,0,0,0,0,0,0,0,0,0,0,0,0,0,0,0,0,0,0,0,0,0,0,0,0,0,0,0,0,0,0,0,0,0,0,0,0,0,0,0,0,0,0,0,0,0,0,0,0,0,0,0,0,0,0,0,0,0,0,0,0,0,0,0,0,0,0,0,0,0,0,0,0,0,0,0,0,0,0,0,0,0,0,0,0,0,0,0,0,0,0,0,0,0,0,0],"id":11,"left_children":[1,3,5,7,9,11,13,15,17,19,21,23,25,27,29,31,33,35,37,39,41,43,45,47,49,51,53,55,57,59,61,-1,63,65,67,69,71,73,75,77,79,81,83,85,87,89,91,93,95,97,99,101,103,105,107,109,111,-1,-1,113,-1,-1,-1,-1,-1,-1,-1,-1,-1,-1,-1,-1,-1,-1,-1,-1,-1,-1,-1,-1,-1,-1,-1,-1,-1,-1,-1,-1,-1,-1,-1,-1,-1,-1,-1,-1,-1,-1,-1,-1,-1,-1,-1,-1,-1,-1,-1,-1,-1,-1,-1,-1,-1,-1,-1],"loss_changes":[1.7989764E7,2.6713035E6,2.838482E6,4.28501E5,8.520825E5,1.438794E6,6.142515E5,6.23215E4,7.484075E4,2.1339575E5,1.868296E5,4.2532144E5,3.285505E5,1.1258075E5,4.893E4,1.77595E4,7.26975E3,3.0085E4,2.8602562E4,3.4772625E4,9.3645E4,4.5895375E4,1.2259727E4,5.0400625E4,2.0054E5,3.9956E4,1.052455E5,7.8613E4,1.66905E4,1.17725E3,1.56135E4,0E0,8.69075E3,4.56225E3,2.778E3,1.1360875E4,9.000625E3,4.4856875E3,1.24648125E4,3.549675E4,9.250281E3,2.9679125E4,2.4376594E4,2.3917086E4,1.4700073E4,9.481035E3,5.208801E3,2.8466078E4,1.8545049E4,4.3753E4,4.6008438E4,3.4811312E4,6.2045625E3,1.722775E4,3.697825E4,1.8086938E4,1.7594875E4,0E0,0E0,1.30075E3,0E0,0E0,0E0,0E0,0E0,0E0,0E0,0E0,0E0,0E0,0E0,0E0,0E0,0E0,0E0,0E0,0E0,0E0,0E0,0E0,0E0,0E0,0E0,0E0,0E0,0E0,0E0,0E0,0E0,0E0,0E0,0E0,0E0,0E0,0E0,0E0,0E0,0E0,0E0,0E0,0E0,0E0,0E0,0E0,0E0,0E0,0E0,0E0,0E0,0E0,0E0,0E0,0E0,0E0,0E0],"parents":[2147483647,0,0,1,1,2,2,3,3,4,4,5,5,6,6,7,7,8,8,9,9,10,10,11,11,12,12,13,13,14,14,15,15,16,16,17,17,18,18,19,19,20,20,21,21,22,22,23,23,24,24,25,25,26,26,27,27,28,28,29,29,30,30,32,32,33,33,34,34,35,35,36,36,37,37,38,38,39,39,40,40,41,41,42,42,43,43,44,44,45,45,46,46,47,47,48,48,49,49,50,50,51,51,52,52,53,53,54,54,55,55,56,56,59,59],"right_children":[2,4,6,8,10,12,14,16,18,20,22,24,26,28,30,32,34,36,38,40,42,44,46,48,50,52,54,56,58,60,62,-1,64,66,68,70,72,74,76,78,80,82,84,86,88,90,92,94,96,98,100,102,104,106,108,110,112,-1,-1,114,-1,-1,-1,-1,-1,-1,-1,-1,-1,-1,-1,-1,-1,-1,-1,-1,-1,-1,-1,-1,-1,-1,-1,-1,-1,-1,-1,-1,-1,-1,-1,-1,-1,-1,-1,-1,-1,-1,-1,-1,-1,-1,-1,-1,-1,-1,-1,-1,-1,-1,-1,-1,-1,-1,-1],"split_conditions":[5.3562E2,4.1897E2,7.0203E2,3.7288E2,5.0844E2,6.2883E2,8.0448E2,3.3988E2,4.347E2,4.1631E2,6.2883E2,4.3966E2,6.0394E2,8.0359E2,7.811E2,2.9991E2,3.8553E2,3.8553E2,2E0,1.1E1,4.7221E2,4.9498E2,6.9894E2,5.9373E2,6.1943E2,7.2206E2,7.0799E2,6.8465E2,6.4156E2,7.5069E2,9.1844E2,-7.8639903E0,2.1E1,2.2E1,5.4663E2,2.3E1,1.1E1,3.9059E2,1.1E1,4.792E2,4.4954E2,1.1E1,1.7E1,1.8E1,1.7E1,4.997E2,7.9249E2,1.3E1,8E0,5.401E2,5.1886E2,2E0,1.9E1,6.5398E2,8.0448E2,5.8034E2,5E0,6.627018E0,8.983256E0,2.6E1,7.5005693E0,1.0505399E1,1.2575325E1,-6.737804E0,-5.5105634E0,-5.8148966E0,-4.306551E0,-4.552269E0,-5.775026E0,-5.2036476E0,-3.5939782E0,-4.421442E0,-3.4990323E0,-2.3147476E0,-8.9335775E-1,-4.0633287E0,-3.191057E0,-4.282642E0,-3.0023162E0,-3.102682E0,-2.3025417E0,-3.2073495E0,-2.1963804E0,-1.5349643E0,-5.125522E-1,-1.3908453E0,-4.5929566E-1,-3.3045772E-1,5.9438354E-1,4.5537812E-1,1.3918176E0,2.0117033E0,4.936186E0,-1.6495596E0,4.6115008E-1,-2.1351941E-1,1.3114884E0,4.2772475E-1,1.4645104E0,1.9629334E0,3.098107E0,1.4528903E0,2.8224797E0,4.1669083E0,3.2737806E0,3.8058584E0,4.5912776E0,5.2855954E0,7.1964707E0,3.657236E0,5.060071E0,7.2703743E0,5.7109504E0,4.3441963E0,9.408971E0],"split_indices":[1,1,1,0,0,0,0,1,0,0,0,0,1,1,1,1,1,1,8,8,1,1,0,1,1,0,0,0,0,4,0,0,8,8,4,8,8,1,8,1,1,8,8,8,8,1,0,8,8,0,0,8,8,1,0,0,8,0,0,11,0,0,0,0,0,0,0,0,0,0,0,0,0,0,0,0,0,0,0,0,0,0,0,0,0,0,0,0,0,0,0,0,0,0,0,0,0,0,0,0,0,0,0,0,0,0,0,0,0,0,0,0,0,0,0],"split_type":[0,0,0,0,0,0,0,0,0,0,0,0,0,0,0,0,0,0,0,0,0,0,0,0,0,0,0,0,0,0,0,0,0,0,0,0,0,0,0,0,0,0,0,0,0,0,0,0,0,0,0,0,0,0,0,0,0,0,0,0,0,0,0,0,0,0,0,0,0,0,0,0,0,0,0,0,0,0,0,0,0,0,0,0,0,0,0,0,0,0,0,0,0,0,0,0,0,0,0,0,0,0,0,0,0,0,0,0,0,0,0,0,0,0,0],"sum_hessian":[2.0956E4,1.1645E4,9.311E3,3.498E3,8.147E3,7.905E3,1.406E3,1.52E3,1.978E3,5.529E3,2.618E3,4.13E3,3.775E3,9.67E2,4.39E2,7.92E2,7.28E2,1.064E3,9.14E2,1.545E3,3.984E3,1.973E3,6.45E2,9.35E2,3.195E3,1.581E3,2.194E3,7.81E2,1.86E2,1.66E2,2.73E2,1.62E2,6.3E2,5.39E2,1.89E2,5.68E2,4.96E2,9.2E1,8.22E2,9.14E2,6.31E2,2.383E3,1.601E3,1.163E3,8.1E2,5.09E2,1.36E2,4.91E2,4.44E2,1.696E3,1.499E3,1.201E3,3.8E2,1.262E3,9.32E2,4.22E2,3.59E2,6.3E1,1.23E2,1.32E2,3.4E1,1.6E2,1.13E2,5.28E2,1.02E2,5.03E2,3.6E1,1.45E2,4.4E1,5.09E2,5.9E1,2.34E2,2.62E2,4.4E1,4.8E1,2.64E2,5.58E2,5.17E2,3.97E2,3.5E2,2.81E2,3.45E2,2.038E3,1.316E3,2.85E2,7.11E2,4.52E2,5.64E2,2.46E2,1.58E2,3.51E2,1.3E2,6E0,4.16E2,7.5E1,3.41E2,1.03E2,6.81E2,1.015E3,6.11E2,8.88E2,2.34E2,9.67E2,1.96E2,1.84E2,7.37E2,5.25E2,8.06E2,1.26E2,1.71E2,2.51E2,1.89E2,1.7E2,3E0,1.29E2],"tree_param":{"num_deleted":"0","num_feature":"13","num_nodes":"115","size_leaf_vector":"1"}},{"base_weights":[1.2253297E-1,-2.2843054E1,3.0262661E1,-4.2288673E1,-1.2884157E1,2.42726E1,7.129577E1,-3.2058907E1,-5.3211853E1,-1.7373941E1,3.0071251E0,1.1590241E1,3.5383717E1,5.7741585E1,9.431996E1,-2.8112785E1,-4.1223763E1,-5.973439E1,-4.5788673E1,-2.4597479E1,-1.3360506E1,-2.8504791E0,9.213586E0,4.116459E0,2.1301704E1,2.4647831E1,4.2461315E1,5.1503956E1,7.425178E1,7.8128006E1,1.0404543E2,-2.9633854E1,-1.1520377E1,-4.6976673E1,-3.6503365E1,-6.656722E1,-5.6364075E1,-4.7633457E1,-2.6068287E1,-3.0687906E1,-2.053694E1,-1.5896189E1,-4.481864E0,-2.4486205E-2,-1.1677895E1,2.543973E0,1.2479277E1,-7.3513966E0,1.0304653E1,1.6127E1,2.8013834E1,2.77299E1,1.4065546E1,3.7452503E1,5.029957E1,6.5134514E1,4.5888523E1,5.9235226E1,8.061449E1,5.9494452E0,8.1029755E1,1.2228208E1,9.799241E1,-3.5561879E0,-2.7686899E0,-2.0016446E0,-7.1340054E-1,-5.373281E0,-4.424232E0,-4.4288282E0,-3.347145E0,-7.3620224E0,-6.390626E0,-5.8663993E0,-4.7567267E0,-5.0214133E0,-4.021114E0,-2.819105E0,-1.2788371E0,-3.2776964E0,-2.5107923E0,-2.4360619E0,-1.615666E0,-2.36163E0,-1.415183E0,-3.3587286E-1,-2.0128102E0,-7.196171E-1,4.116035E-1,-1.475376E0,1.4172509E-2,1.0206338E0,-3.6017463E-2,1.5054196E0,8.207046E-2,-1.168033E0,8.359249E-1,7.4183494E-1,1.7118002E0,3.266005E0,1.0568298E0,2.1680298E0,3.5397623E0,2.1749942E0,3.139593E0,8.606262E-1,2.078287E0,4.8291826E0,3.6034367E0,4.8286004E0,7.0480304E0,4.5829043E0,6.783742E0,4.4287534E0,6.2635646E0,5.4014425E0,7.118918E0,9.6789E0,7.557068E0,4.918331E0,8.208793E0,1.0162074E1,8.331859E0],"categories":[],"categories_nodes":[],"categories_segments":[],"categories_sizes":[],"default_left":[0,0,0,0,0,0,0,0,0,0,0,0,0,0,0,0,0,0,0,0,0,0,0,0,0,0,0,0,0,0,0,0,0,0,0,0,0,0,0,0,0,0,0,0,0,0,0,0,0,0,0,0,0,0,0,0,0,0,0,0,0,0,0,0,0,0,0,0,0,0,0,0,0,0,0,0,0,0,0,0,0,0,0,0,0,0,0,0,0,0,0,0,0,0,0,0,0,0,0,0,0,0,0,0,0,0,0,0,0,0,0,0,0,0,0,0,0,0,0,0,0,0,0],"id":12,"left_children":[1,3,5,7,9,11,13,15,17,19,21,23,25,27,29,31,33,35,37,39,41,43,45,47,49,51,53,55,57,59,61,63,65,67,69,71,73,75,77,79,81,83,85,87,89,91,93,95,97,99,101,103,105,107,109,111,113,115,117,-1,119,-1,121,-1,-1,-1,-1,-1,-1,-1,-1,-1,-1,-1,-1,-1,-1,-1,-1,-1,-1,-1,-1,-1,-1,-1,-1,-1,-1,-1,-1,-1,-1,-1,-1,-1,-1,-1,-1,-1,-1,-1,-1,-1,-1,-1,-1,-1,-1,-1,-1,-1,-1,-1,-1,-1,-1,-1,-1,-1,-1,-1,-1],"loss_changes":[1.4607195E7,2.3188785E6,2.2413465E6,4.5151E5,5.652759E5,1.1219745E6,3.571685E5,7.467325E4,9.21535E4,1.7874625E5,6.3502715E4,2.6998497E5,3.215E5,7.1754E4,5.94095E4,3.6729375E4,1.5358E4,2.018575E4,3.225675E4,5.389525E4,8.93725E4,2.242519E4,1.8436945E4,1.4938706E5,5.574225E4,5.4693062E4,9.8496E4,3.8026125E4,1.42245E4,4.0866875E3,1.724775E4,1.45325E4,4.5128516E3,2.7855625E3,6.7709375E3,1.625E3,1.1422E4,1.4080875E4,1.9187812E3,9.429375E3,2.181125E4,4.1273938E4,1.5464441E4,2.0281588E4,7.9290664E3,6.2353994E3,1.7067375E4,5.0289594E4,2.6753156E4,8.383305E4,3.2103E4,2.7964875E4,1.3863484E4,2.22925E4,3.6976E4,4.9155625E3,7.4843125E3,7.4015625E1,3.8449375E3,0E0,6.67375E2,0E0,2.375875E3,0E0,0E0,0E0,0E0,0E0,0E0,0E0,0E0,0E0,0E0,0E0,0E0,0E0,0E0,0E0,0E0,0E0,0E0,0E0,0E0,0E0,0E0,0E0,0E0,0E0,0E0,0E0,0E0,0E0,0E0,0E0,0E0,0E0,0E0,0E0,0E0,0E0,0E0,0E0,0E0,0E0,0E0,0E0,0E0,0E0,0E0,0E0,0E0,0E0,0E0,0E0,0E0,0E0,0E0,0E0,0E0,0E0,0E0,0E0,0E0],"parents":[2147483647,0,0,1,1,2,2,3,3,4,4,5,5,6,6,7,7,8,8,9,9,10,10,11,11,12,12,13,13,14,14,15,15,16,16,17,17,18,18,19,19,20,20,21,21,22,22,23,23,24,24,25,25,26,26,27,27,28,28,29,29,30,30,31,31,32,32,33,33,34,34,35,35,36,36,37,37,38,38,39,39,40,40,41,41,42,42,43,43,44,44,45,45,46,46,47,47,48,48,49,49,50,50,51,51,52,52,53,53,54,54,55,55,56,56,57,57,58,58,60,60,62,62],"right_children":[2,4,6,8,10,12,14,16,18,20,22,24,26,28,30,32,34,36,38,40,42,44,46,48,50,52,54,56,58,60,62,64,66,68,70,72,74,76,78,80,82,84,86,88,90,92,94,96,98,100,102,104,106,108,110,112,114,116,118,-1,120,-1,122,-1,-1,-1,-1,-1,-1,-1,-1,-1,-1,-1,-1,-1,-1,-1,-1,-1,-1,-1,-1,-1,-1,-1,-1,-1,-1,-1,-1,-1,-1,-1,-1,-1,-1,-1,-1,-1,-1,-1,-1,-1,-1,-1,-1,-1,-1,-1,-1,-1,-1,-1,-1,-1,-1,-1,-1,-1,-1,-1,-1],"split_conditions":[5.4041E2,4.2845E2,7.1188E2,7E0,4.639E1,5.066E1,6.652E1,4.833E2,3.464E2,3.643E1,5.196E1,6.2102E2,6.0394E2,8.0359E2,7.811E2,1.7E1,1E1,3.1302E2,2.3E1,4.1915E2,4.9836E2,6E0,5.037E2,3.762E1,1.1E1,6.04E2,5.958E1,5E0,5.282E1,7.4085E2,2E0,3.9059E2,3.8352E2,3.181E2,3.8553E2,2.8909E2,2.1E1,3.8806E2,3.8806E2,4.9374E2,4.6662E2,1.1E1,6.4575E2,4.8512E2,5.2141E2,4.1102E2,5.635E2,1.6E1,5.8996E2,6E0,6.5398E2,5.665E2,5.7869E2,2E0,7.096E1,5.368E1,2.3E1,8E0,2E0,5.9494452E0,2.8E1,1.2228208E1,2.1E1,-3.5561879E0,-2.7686899E0,-2.0016446E0,-7.1340054E-1,-5.373281E0,-4.424232E0,-4.4288282E0,-3.347145E0,-7.3620224E0,-6.390626E0,-5.8663993E0,-4.7567267E0,-5.0214133E0,-4.021114E0,-2.819105E0,-1.2788371E0,-3.2776964E0,-2.5107923E0,-2.4360619E0,-1.615666E0,-2.36163E0,-1.415183E0,-3.3587286E-1,-2.0128102E0,-7.196171E-1,4.116035E-1,-1.475376E0,1.4172509E-2,1.0206338E0,-3.6017463E-2,1.5054196E0,8.207046E-2,-1.168033E0,8.359249E-1,7.4183494E-1,1.7118002E0,3.266005E0,1.0568298E0,2.1680298E0,3.5397623E0,2.1749942E0,3.139593E0,8.606262E-1,2.078287E0,4.8291826E0,3.6034367E0,4.8286004E0,7.0480304E0,4.5829043E0,6.783742E0,4.4287534E0,6.2635646E0,5.4014425E0,7.118918E0,9.6789E0,7.557068E0,4.918331E0,8.208793E0,1.0162074E1,8.331859E0],"split_indices":[1,1,1,9,2,2,2,4,1,2,2,1,1,1,1,11,8,1,8,5,1,9,1,2,8,4,2,8,2,5,9,1,1,5,1,1,8,1,1,1,1,8,4,1,1,4,4,8,5,8,1,1,1,9,2,2,8,8,9,0,11,0,8,0,0,0,0,0,0,0,0,0,0,0,0,0,0,0,0,0,0,0,0,0,0,0,0,0,0,0,0,0,0,0,0,0,0,0,0,0,0,0,0,0,0,0,0,0,0,0,0,0,0,0,0,0,0,0,0,0,0,0,0],"split_type":[0,0,0,0,0,0,0,0,0,0,0,0,0,0,0,0,0,0,0,0,0,0,0,0,0,0,0,0,0,0,0,0,0,0,0,0,0,0,0,0,0,0,0,0,0,0,0,0,0,0,0,0,0,0,0,0,0,0,0,0,0,0,0,0,0,0,0,0,0,0,0,0,0,0,0,0,0,0,0,0,0,0,0,0,0,0,0,0,0,0,0,0,0,0,0,0,0,0,0,0,0,0,0,0,0,0,0,0,0,0,0,0,0,0,0,0,0,0,0,0,0,0,0],"sum_hessian":[2.1101E4,1.1976E4,9.125E3,4.055E3,7.921E3,7.964E3,1.161E3,2.096E3,1.959E3,6.176E3,1.745E3,3.72E3,4.244E3,7.33E2,4.28E2,1.468E3,6.28E2,1.039E3,9.2E2,2.204E3,3.972E3,8.98E2,8.47E2,2.103E3,1.617E3,1.688E3,2.556E3,5.35E2,1.98E2,1.64E2,2.64E2,1.344E3,1.24E2,2.79E2,3.49E2,3.37E2,7.02E2,8.4E2,8E1,8.79E2,1.325E3,3.089E3,8.83E2,6.81E2,2.17E2,2.79E2,5.68E2,7.37E2,1.366E3,9.15E2,7.02E2,1.306E3,3.82E2,1.563E3,9.93E2,1.53E2,3.82E2,6.2E1,1.36E2,2.5E1,1.39E2,6.1E1,2.03E2,3.28E2,1.016E3,4.1E1,8.3E1,7.5E1,2.04E2,9.4E1,2.55E2,8.5E1,2.52E2,5.52E2,1.5E2,6.19E2,2.21E2,6.8E1,1.2E1,6.36E2,2.43E2,7.05E2,6.2E2,5.67E2,2.522E3,8.25E2,5.8E1,2.49E2,4.32E2,1.72E2,4.5E1,7.6E1,2.03E2,4.65E2,1.03E2,5.78E2,1.59E2,9.61E2,4.05E2,2.29E2,6.86E2,3.8E2,3.22E2,4.99E2,8.07E2,2.12E2,1.7E2,1.77E2,1.386E3,9.06E2,8.7E1,2.1E1,1.32E2,3.52E2,3E1,4.7E1,1.5E1,2.8E1,1.08E2,6E0,1.33E2,1.58E2,4.5E1],"tree_param":{"num_deleted":"0","num_feature":"13","num_nodes":"123","size_leaf_vector":"1"}},{"base_weights":[-8.711936E-2,-1.9900408E1,2.8227032E1,-3.747736E1,-1.0625851E1,2.3195326E1,6.8161316E1,-2.8599918E1,-4.8072834E1,-1.5871864E1,2.2296813E0,1.1084479E1,3.290403E1,5.4037624E1,8.494252E1,-2.5272476E1,-3.7273834E1,-5.394484E1,-4.1440823E1,-2.4814777E1,-1.3233764E1,-7.1584415E0,6.493588E0,-1.2765507E0,1.6136988E1,2.3844826E1,3.873128E1,4.8540592E1,7.040919E1,8.0090454E1,1.07616104E2,-2.6577204E1,-9.797756E0,-4.19147E1,-3.2632217E1,-5.6076206E1,-4.4388397E1,-4.364449E1,-2.7319115E1,-2.6436377E1,-1.0228145E1,-1.7982254E1,-9.067227E0,-1.0517499E1,-1.8963751E0,8.684022E0,-6.7146225E0,-5.296393E0,1.1636007E1,1.0784737E1,2.2930637E1,2.6363136E1,1.3157577E1,3.4835022E1,4.8718296E1,4.1252926E1,5.6065884E1,5.8118854E0,7.681542E1,6.9704796E1,8.4957306E1,9.244239E0,1.19249735E1,-3.2080686E0,-2.4956012E0,-1.4810425E0,-4.3243432E-1,-4.6872134E0,-3.896731E0,-2.4101827E0,-3.5207195E0,-6.4537544E0,-5.412802E0,-4.627255E0,-3.5482717E0,-4.5965614E0,-3.6828618E0,-2.8265693E0,8.829622E-1,-2.944924E0,-1.9957856E0,-2.2147541E-1,-2.1908574E0,-1.4748514E0,-2.3863573E0,-1.085305E0,-1.6050783E-1,-1.5077652E0,-8.109118E-1,5.347212E-2,-9.335567E-1,1.490811E-1,1.11778E0,-1.449917E0,-3.3643942E-2,-9.6091956E-1,5.151129E-1,7.250237E-1,1.9836549E0,6.241439E-1,1.3871069E0,1.8902276E0,2.7543705E0,2.2522006E0,3.049404E0,8.074953E-1,1.8004402E0,3.9776566E0,3.0993352E0,4.5992155E0,6.3300548E0,3.6097806E0,5.6311774E0,6.3267407E0,4.9868665E0,8.982053E0,7.065095E0,5.6389966E0,7.220231E0,9.254577E0,7.7356563E0],"categories":[],"categories_nodes":[],"categories_segments":[],"categories_sizes":[],"default_left":[0,0,0,0,0,0,0,0,0,0,0,0,0,0,0,0,0,0,0,0,0,0,0,0,0,0,0,0,0,0,0,0,0,0,0,0,0,0,0,0,0,0,0,0,0,0,0,0,0,0,0,0,0,0,0,0,0,0,0,0,0,0,0,0,0,0,0,0,0,0,0,0,0,0,0,0,0,0,0,0,0,0,0,0,0,0,0,0,0,0,0,0,0,0,0,0,0,0,0,0,0,0,0,0,0,0,0,0,0,0,0,0,0,0,0,0,0,0,0,0,0],"id":13,"left_children":[1,3,5,7,9,11,13,15,17,19,21,23,25,27,29,31,33,35,37,39,41,43,45,47,49,51,53,55,57,59,61,63,65,67,69,71,73,75,77,79,81,83,85,87,89,91,93,95,97,99,101,103,105,107,109,111,113,-1,115,117,119,-1,-1,-1,-1,-1,-1,-1,-1,-1,-1,-1,-1,-1,-1,-1,-1,-1,-1,-1,-1,-1,-1,-1,-1,-1,-1,-1,-1,-1,-1,-1,-1,-1,-1,-1,-1,-1,-1,-1,-1,-1,-1,-1,-1,-1,-1,-1,-1,-1,-1,-1,-1,-1,-1,-1,-1,-1,-1,-1,-1],"loss_changes":[1.1830854E7,2.0221665E6,1.7429495E6,4.016675E5,5.478543E5,9.0641275E5,2.255355E5,6.6415625E4,7.3772E4,1.3577188E5,9.431725E4,2.1442738E5,2.250125E5,4.4267625E4,3.9988E4,3.38575E4,1.25188125E4,1.852125E4,2.74615E4,3.078325E4,8.801481E4,1.2988035E4,4.6927883E4,5.1811723E4,8.8361875E4,4.48105E4,9.958225E4,1.9614125E4,5.8363125E3,1.26635E4,2.1945E3,1.30945E4,3.583082E3,2.826E3,6.3282188E3,1.034125E4,1.5884375E3,1.087625E4,4.597164E3,2.2459125E4,1.2397844E4,3.9241E4,3.1644094E4,4.8065977E3,5.214465E3,2.4916266E4,1.1463078E4,3.4339156E4,8.377344E3,1.905161E4,1.9414375E4,2.0839938E4,7.7843438E3,3.437375E4,2.6018125E4,1.4027469E4,5.4918125E3,0E0,2.92125E2,5.875E0,7.01275E3,0E0,0E0,0E0,0E0,0E0,0E0,0E0,0E0,0E0,0E0,0E0,0E0,0E0,0E0,0E0,0E0,0E0,0E0,0E0,0E0,0E0,0E0,0E0,0E0,0E0,0E0,0E0,0E0,0E0,0E0,0E0,0E0,0E0,0E0,0E0,0E0,0E0,0E0,0E0,0E0,0E0,0E0,0E0,0E0,0E0,0E0,0E0,0E0,0E0,0E0,0E0,0E0,0E0,0E0,0E0,0E0,0E0,0E0,0E0,0E0],"parents":[2147483647,0,0,1,1,2,2,3,3,4,4,5,5,6,6,7,7,8,8,9,9,10,10,11,11,12,12,13,13,14,14,15,15,16,16,17,17,18,18,19,19,20,20,21,21,22,22,23,23,24,24,25,25,26,26,27,27,28,28,29,29,30,30,31,31,32,32,33,33,34,34,35,35,36,36,37,37,38,38,39,39,40,40,41,41,42,42,43,43,44,44,45,45,46,46,47,47,48,48,49,49,50,50,51,51,52,52,53,53,54,54,55,55,56,56,58,58,59,59,60,60],"right_children":[2,4,6,8,10,12,14,16,18,20,22,24,26,28,30,32,34,36,38,40,42,44,46,48,50,52,54,56,58,60,62,64,66,68,70,72,74,76,78,80,82,84,86,88,90,92,94,96,98,100,102,104,106,108,110,112,114,-1,116,118,120,-1,-1,-1,-1,-1,-1,-1,-1,-1,-1,-1,-1,-1,-1,-1,-1,-1,-1,-1,-1,-1,-1,-1,-1,-1,-1,-1,-1,-1,-1,-1,-1,-1,-1,-1,-1,-1,-1,-1,-1,-1,-1,-1,-1,-1,-1,-1,-1,-1,-1,-1,-1,-1,-1,-1,-1,-1,-1,-1,-1],"split_conditions":[5.488E2,4.3222E2,7.2064E2,7E0,4.495E1,5.029E1,6.516E1,4.8724E2,3.464E2,4.1915E2,1.4794E2,3.739E1,6.0881E2,8.244E2,9.4935E2,1.1248E2,1E1,2.1E1,2.2E1,1.6259E2,4.7049E2,5.0103E2,6E0,1.4E1,6.3357E2,6.1506E2,6.163E1,5.551E1,5.404E1,7.6545E2,9.0165E2,3.9059E2,4.0278E2,4.0278E2,2E0,2.9991E2,2.3E1,3.9059E2,4.2845E2,1.1E1,7E0,6E0,1.7E1,4.6286E2,6E0,4.926E2,5.1053E2,6.2247E2,6.2247E2,4.361E1,1.1E1,5.8028E2,5.8173E2,5E0,7.096E1,9E0,5E0,5.8118854E0,2E0,7.4085E2,5E0,9.244239E0,1.19249735E1,-3.2080686E0,-2.4956012E0,-1.4810425E0,-4.3243432E-1,-4.6872134E0,-3.896731E0,-2.4101827E0,-3.5207195E0,-6.4537544E0,-5.412802E0,-4.627255E0,-3.5482717E0,-4.5965614E0,-3.6828618E0,-2.8265693E0,8.829622E-1,-2.944924E0,-1.9957856E0,-2.2147541E-1,-2.1908574E0,-1.4748514E0,-2.3863573E0,-1.085305E0,-1.6050783E-1,-1.5077652E0,-8.109118E-1,5.347212E-2,-9.335567E-1,1.490811E-1,1.11778E0,-1.449917E0,-3.3643942E-2,-9.6091956E-1,5.151129E-1,7.250237E-1,1.9836549E0,6.241439E-1,1.3871069E0,1.8902276E0,2.7543705E0,2.2522006E0,3.049404E0,8.074953E-1,1.8004402E0,3.9776566E0,3.0993352E0,4.5992155E0,6.3300548E0,3.6097806E0,5.6311774E0,6.3267407E0,4.9868665E0,8.982053E0,7.065095E0,5.6389966E0,7.220231E0,9.254577E0,7.7356563E0],"split_indices":[1,1,1,9,2,2,2,4,1,5,12,2,1,1,5,12,8,8,8,12,1,1,9,8,1,4,2,2,2,1,1,1,1,1,9,1,8,1,1,8,9,9,8,1,9,1,1,1,1,2,8,1,1,8,2,8,8,0,9,5,8,0,0,0,0,0,0,0,0,0,0,0,0,0,0,0,0,0,0,0,0,0,0,0,0,0,0,0,0,0,0,0,0,0,0,0,0,0,0,0,0,0,0,0,0,0,0,0,0,0,0,0,0,0,0,0,0,0,0,0,0],"split_type":[0,0,0,0,0,0,0,0,0,0,0,0,0,0,0,0,0,0,0,0,0,0,0,0,0,0,0,0,0,0,0,0,0,0,0,0,0,0,0,0,0,0,0,0,0,0,0,0,0,0,0,0,0,0,0,0,0,0,0,0,0,0,0,0,0,0,0,0,0,0,0,0,0,0,0,0,0,0,0,0,0,0,0,0,0,0,0,0,0,0,0,0,0,0,0,0,0,0,0,0,0,0,0,0,0,0,0,0,0,0,0,0,0,0,0,0,0,0,0,0,0],"sum_hessian":[2.1087E4,1.2406E4,8.681E3,4.284E3,8.122E3,7.711E3,9.7E2,2.333E3,1.951E3,5.768E3,2.354E3,3.432E3,4.279E3,5.29E2,4.41E2,1.689E3,6.44E2,1.031E3,9.2E2,1.312E3,4.456E3,7.35E2,1.619E3,9.96E2,2.436E3,1.677E3,2.602E3,3.99E2,1.3E2,3.67E2,7.4E1,1.557E3,1.32E2,3.18E2,3.26E2,8.39E2,1.92E2,7.94E2,1.26E2,1.18E3,1.32E2,2.081E3,2.375E3,4.48E2,2.87E2,1.389E3,2.3E2,7.6E2,2.36E2,1.364E3,1.072E3,1.356E3,3.21E2,1.875E3,7.27E2,2.06E2,1.93E2,4.8E1,8.2E1,1.22E2,2.45E2,3.6E1,3.8E1,3.5E2,1.207E3,6.8E1,6.4E1,1.13E2,2.05E2,7.8E1,2.48E2,1.51E2,6.88E2,1.55E2,3.7E1,5.88E2,2.06E2,1.23E2,3E0,8.03E2,3.77E2,7.9E1,5.3E1,1.345E3,7.36E2,1.916E3,4.59E2,1.53E2,2.95E2,2.17E2,7E1,3.58E2,1.031E3,1.03E2,1.27E2,5.38E2,2.22E2,1.55E2,8.1E1,5.53E2,8.11E2,5.75E2,4.97E2,7.06E2,6.5E2,1.58E2,1.63E2,8.16E2,1.059E3,6.16E2,1.11E2,1.56E2,5E1,8.5E1,1.08E2,2.2E1,6E1,2.3E1,9.9E1,1.17E2,1.28E2],"tree_param":{"num_deleted":"0","num_feature":"13","num_nodes":"121","size_leaf_vector":"1"}},{"base_weights":[-6.568252E-2,-1.7604332E1,2.8260134E1,-3.2139168E1,-6.982301E0,2.1533367E1,5.5507042E1,-4.598762E1,-2.6826674E1,-1.2145045E1,8.9989054E-1,1.381967E1,2.8680971E1,4.7504787E1,7.8826645E1,-5.506696E1,-4.3308517E1,-3.3111824E1,-2.3599968E1,-1.5451979E1,-6.6834073E0,-1.4475626E0,8.622401E0,1.097547E1,1.820811E1,2.562644E1,3.4606865E1,4.3844658E1,5.6089962E1,7.350853E1,9.900688E1,-5.573461E1,-2.9779432E0,-4.5335457E1,-3.6996532E1,-3.56306E1,-2.5257307E1,-2.1432842E1,-2.750649E1,-1.712623E1,-1.028681E1,-4.724156E0,-1.2136244E1,5.128668E0,-5.450543E0,1.0138514E1,-5.7607746E0,1.9032448E1,9.405807E0,2.1005074E1,1.2797015E1,3.0249199E1,2.280213E1,6.0475758E1,3.4161716E1,4.8164497E1,4.069746E1,4.728738E1,5.7660004E1,6.3748528E1,7.627026E1,1.086215E1,8.2989494E1,-6.2831044E0,-5.309849E0,-4.641122E0,-4.0499372E0,-2.341081E0,-3.7905705E0,-3.2756774E0,-3.765622E0,-2.853381E0,-2.2581105E0,-2.2957773E0,-6.912126E-1,-2.858764E0,-1.3915471E0,-1.5480038E0,-2.1251285E0,-1.4837886E0,-1.15961246E-1,-7.166726E-1,3.1382653E-1,-1.4177426E0,-6.6496366E-1,2.7481818E-1,1.8602284E0,-6.223891E-1,2.1460392E0,4.483079E-1,1.2995856E0,-1.2855729E0,2.890003E-1,1.7225809E0,3.0061977E0,8.638711E-1,2.1236732E0,1.9919016E0,3.3941057E0,9.885236E-1,1.6202745E0,2.6802058E0,3.582312E0,2.2066991E0,4.197229E0,2.6746974E0,6.543172E0,3.8152864E0,3.148968E0,5.2993093E0,4.4945536E0,3.8879323E0,5.392077E0,5.171034E0,3.5249035E0,5.482547E0,6.40168E0,3.0767267E0,6.4656215E0,8.264709E0,7.1282625E0,8.797175E0,5.047875E0],"categories":[],"categories_nodes":[],"categories_segments":[],"categories_sizes":[],"default_left":[0,0,0,0,0,0,0,0,0,0,0,0,0,0,0,0,0,0,0,0,0,0,0,0,0,0,0,0,0,0,0,0,0,0,0,0,0,0,0,0,0,0,0,0,0,0,0,0,0,0,0,0,0,0,0,0,0,0,0,0,0,0,0,0,0,0,0,0,0,0,0,0,0,0,0,0,0,0,0,0,0,0,0,0,0,0,0,0,0,0,0,0,0,0,0,0,0,0,0,0,0,0,0,0,0,0,0,0,0,0,0,0,0,0,0,0,0,0,0,0,0,0,0],"id":14,"left_children":[1,3,5,7,9,11,13,15,17,19,21,23,25,27,29,31,33,35,37,39,41,43,45,47,49,51,53,55,57,59,61,63,-1,65,67,69,71,73,75,77,79,81,83,85,87,89,91,93,95,97,99,101,103,105,107,109,111,113,115,117,119,-1,121,-1,-1,-1,-1,-1,-1,-1,-1,-1,-1,-1,-1,-1,-1,-1,-1,-1,-1,-1,-1,-1,-1,-1,-1,-1,-1,-1,-1,-1,-1,-1,-1,-1,-1,-1,-1,-1,-1,-1,-1,-1,-1,-1,-1,-1,-1,-1,-1,-1,-1,-1,-1,-1,-1,-1,-1,-1,-1,-1,-1],"loss_changes":[1.0495821E7,2.0142452E6,1.4795445E6,4.040555E5,3.0684288E5,3.569255E5,2.946315E5,3.472425E4,8.000975E4,8.218169E4,5.4125973E4,3.8727375E4,5.99805E4,3.501825E4,3.63845E4,4.1395625E3,1.345E4,2.57825E4,2.172175E4,2.4354875E4,1.8316562E4,6.0311145E4,1.5236168E4,2.3783703E4,1.826775E4,2.8328625E4,1.106375E4,9.464625E3,2.141625E3,3.911E3,3.5945E3,2.9003125E3,0E0,2.747125E3,2.7255312E3,4.69125E3,2.2529688E3,3.7481562E4,1.3366125E4,1.4206125E4,2.8933578E4,2.4355008E4,4.9880625E3,2.7754686E4,2.9767648E4,1.0120484E4,4.1504004E3,5.614742E3,1.4225375E4,1.0642219E4,4.0022578E3,1.51734375E4,1.8571625E4,1.2495312E3,1.0778625E4,3.0329375E3,9.747E3,1.3100312E3,1.7938125E3,3.3621875E2,2.012875E3,0E0,1.2146719E3,0E0,0E0,0E0,0E0,0E0,0E0,0E0,0E0,0E0,0E0,0E0,0E0,0E0,0E0,0E0,0E0,0E0,0E0,0E0,0E0,0E0,0E0,0E0,0E0,0E0,0E0,0E0,0E0,0E0,0E0,0E0,0E0,0E0,0E0,0E0,0E0,0E0,0E0,0E0,0E0,0E0,0E0,0E0,0E0,0E0,0E0,0E0,0E0,0E0,0E0,0E0,0E0,0E0,0E0,0E0,0E0,0E0,0E0,0E0,0E0],"parents":[2147483647,0,0,1,1,2,2,3,3,4,4,5,5,6,6,7,7,8,8,9,9,10,10,11,11,12,12,13,13,14,14,15,15,16,16,17,17,18,18,19,19,20,20,21,21,22,22,23,23,24,24,25,25,26,26,27,27,28,28,29,29,30,30,31,31,33,33,34,34,35,35,36,36,37,37,38,38,39,39,40,40,41,41,42,42,43,43,44,44,45,45,46,46,47,47,48,48,49,49,50,50,51,51,52,52,53,53,54,54,55,55,56,56,57,57,58,58,59,59,60,60,62,62],"right_children":[2,4,6,8,10,12,14,16,18,20,22,24,26,28,30,32,34,36,38,40,42,44,46,48,50,52,54,56,58,60,62,64,-1,66,68,70,72,74,76,78,80,82,84,86,88,90,92,94,96,98,100,102,104,106,108,110,112,114,116,118,120,-1,122,-1,-1,-1,-1,-1,-1,-1,-1,-1,-1,-1,-1,-1,-1,-1,-1,-1,-1,-1,-1,-1,-1,-1,-1,-1,-1,-1,-1,-1,-1,-1,-1,-1,-1,-1,-1,-1,-1,-1,-1,-1,-1,-1,-1,-1,-1,-1,-1,-1,-1,-1,-1,-1,-1,-1,-1,-1,-1,-1,-1],"split_conditions":[5.5269E2,4.4123E2,7.1832E2,3.5046E2,4.9836E2,6.3606E2,8.3303E2,3.0443E2,3.904E2,4.8098E2,1.7E1,6.0559E2,6.849E2,7.6014E2,9.3384E2,2.1E1,3.7825E2,4.4534E2,6E0,1.7E1,6E0,2E0,6E0,5.4899E2,6.4405E2,5E0,6.4169E2,5E0,6.1194E2,8.5789E2,6E0,2.7977E2,-2.9779432E0,2.1E1,2E0,7E0,4.8209E2,1.7E1,5.2157E2,6E0,1.7E1,1.5E1,2.1E1,5.9795E2,7.5069E2,5.0384E2,5.0914E2,6.3521E2,6.6146E2,6.7122E2,6.2624E2,6.2389E2,2.3E1,1.8581E2,5E0,2E0,7.6545E2,2E1,6.817E1,6.8502E2,5E0,1.086215E1,2E0,-6.2831044E0,-5.309849E0,-4.641122E0,-4.0499372E0,-2.341081E0,-3.7905705E0,-3.2756774E0,-3.765622E0,-2.853381E0,-2.2581105E0,-2.2957773E0,-6.912126E-1,-2.858764E0,-1.3915471E0,-1.5480038E0,-2.1251285E0,-1.4837886E0,-1.15961246E-1,-7.166726E-1,3.1382653E-1,-1.4177426E0,-6.6496366E-1,2.7481818E-1,1.8602284E0,-6.223891E-1,2.1460392E0,4.483079E-1,1.2995856E0,-1.2855729E0,2.890003E-1,1.7225809E0,3.0061977E0,8.638711E-1,2.1236732E0,1.9919016E0,3.3941057E0,9.885236E-1,1.6202745E0,2.6802058E0,3.582312E0,2.2066991E0,4.197229E0,2.6746974E0,6.543172E0,3.8152864E0,3.148968E0,5.2993093E0,4.4945536E0,3.8879323E0,5.392077E0,5.171034E0,3.5249035E0,5.482547E0,6.40168E0,3.0767267E0,6.4656215E0,8.264709E0,7.1282625E0,8.797175E0,5.047875E0],"split_indices":[6,6,6,6,1,6,6,6,6,6,8,6,6,6,6,8,1,1,9,8,9,8,9,5,5,8,5,8,3,6,8,6,0,8,9,9,1,8,4,9,11,11,8,1,3,6,1,1,1,1,6,1,8,12,8,9,1,8,2,1,8,0,9,0,0,0,0,0,0,0,0,0,0,0,0,0,0,0,0,0,0,0,0,0,0,0,0,0,0,0,0,0,0,0,0,0,0,0,0,0,0,0,0,0,0,0,0,0,0,0,0,0,0,0,0,0,0,0,0,0,0,0,0],"split_type":[0,0,0,0,0,0,0,0,0,0,0,0,0,0,0,0,0,0,0,0,0,0,0,0,0,0,0,0,0,0,0,0,0,0,0,0,0,0,0,0,0,0,0,0,0,0,0,0,0,0,0,0,0,0,0,0,0,0,0,0,0,0,0,0,0,0,0,0,0,0,0,0,0,0,0,0,0,0,0,0,0,0,0,0,0,0,0,0,0,0,0,0,0,0,0,0,0,0,0,0,0,0,0,0,0,0,0,0,0,0,0,0,0,0,0,0,0,0,0,0,0,0,0],"sum_hessian":[2.1125E4,1.3047E4,8.078E3,5.508E3,7.539E3,6.48E3,1.598E3,1.525E3,3.983E3,4.555E3,2.984E3,3.118E3,3.362E3,1.192E3,4.06E2,3.43E2,1.182E3,1.348E3,2.635E3,2.836E3,1.719E3,2.289E3,6.95E2,1.894E3,1.224E3,2.222E3,1.14E3,8.4E2,3.52E2,3.25E2,8.1E1,3.33E2,1E1,8.9E2,2.92E2,1.018E3,3.3E2,1.699E3,9.36E2,2.14E3,6.96E2,1.266E3,4.53E2,8.66E2,1.423E3,6.29E2,6.6E1,3.07E2,1.587E3,8.05E2,4.19E2,8.39E2,1.383E3,1.7E1,1.123E3,3.48E2,4.92E2,5.8E1,2.94E2,7.7E1,2.48E2,4.7E1,3.4E1,8.4E1,2.49E2,7.21E2,1.69E2,2E1,2.72E2,4.28E2,5.9E2,1.44E2,1.86E2,1.537E3,1.62E2,8.66E2,7E1,1.533E3,6.07E2,4.64E2,2.32E2,9.66E2,3E2,3.29E2,1.24E2,7.37E2,1.29E2,1.384E3,3.9E1,2.12E2,4.17E2,3.6E1,3E1,2.66E2,4.1E1,1.492E3,9.5E1,7.45E2,6E1,2.28E2,1.91E2,5.22E2,3.17E2,1.334E3,4.9E1,3E0,1.4E1,4.45E2,6.78E2,1.33E2,2.15E2,4.36E2,5.6E1,4E1,1.8E1,2.1E2,8.4E1,3E0,7.4E1,1.02E2,1.46E2,2.8E1,6E0],"tree_param":{"num_deleted":"0","num_feature":"13","num_nodes":"123","size_leaf_vector":"1"}},{"base_weights":[-2.910438E-2,-1.782964E1,2.2327978E1,-3.3002605E1,-1.0757439E1,1.446153E1,4.2507446E1,-4.1374386E1,-2.742907E1,-1.6056438E1,-4.933759E0,7.2561016E0,2.0921526E1,3.5774708E1,6.591233E1,-4.686415E1,-3.8144966E1,-2.4513908E1,-3.2943893E1,-1.928702E1,-1.26074E1,-7.8481064E0,8.281288E-1,6.151302E0,1.7406551E1,1.7027267E1,2.366856E1,3.1741705E1,4.0949432E1,5.7299915E1,7.69969E1,-5.590749E0,-4.516841E1,-3.9464264E1,-2.9610252E1,-2.6278156E1,-1.8824326E1,-3.4196644E1,-1.9268782E1,-2.0030388E1,-9.201608E0,-1.4409624E1,-4.660114E0,-1.00343685E1,-2.6191187E0,-5.6440103E-1,8.722591E0,1.4361802E0,9.360225E0,1.5403652E1,3.32683E1,1.9651592E1,1.232274E1,2.8702936E1,2.1393341E1,3.1136164E1,5.064558E1,3.7297245E1,4.4574726E1,4.0615554E0,5.900516E1,7.068835E1,9.0162285E1,-4.536094E0,-1.8363441E0,-4.298381E0,-3.747915E0,-3.5309944E0,-2.7050693E0,-2.844806E0,-2.238757E0,-1.9166768E0,8.685932E-1,-3.65718E0,-2.8538206E0,-2.0464618E0,-6.080942E-1,-1.8558506E0,-2.354722E0,-5.1712507E-1,-2.3331323E0,-1.7401941E-1,-1.5491272E0,-7.43415E-1,-6.997163E-2,-3.408628E-1,-1.1644462E0,8.418133E-2,-1.0501424E0,4.530476E-1,-3.832403E-1,5.073464E-1,1.1760571E0,3.820139E-1,-4.452984E-1,8.7536484E-2,1.2903007E0,1.3195236E0,2.355118E0,2.2091556E0,4.764997E0,1.8754736E0,3.6671898E0,3.012846E-1,1.3183676E0,2.7479117E0,4.7429447E0,2.5884037E0,1.891625E0,3.4958699E0,2.8453605E0,2.9782445E0,5.6961017E0,4.114138E0,3.2411613E0,4.3411098E0,6.1429796E0,4.395044E0,6.0158844E0,7.675695E0,6.4893794E0,9.793394E0,7.445985E0],"categories":[],"categories_nodes":[],"categories_segments":[],"categories_sizes":[],"default_left":[0,0,0,0,0,0,0,0,0,0,0,0,0,0,0,0,0,0,0,0,0,0,0,0,0,0,0,0,0,0,0,0,0,0,0,0,0,0,0,0,0,0,0,0,0,0,0,0,0,0,0,0,0,0,0,0,0,0,0,0,0,0,0,0,0,0,0,0,0,0,0,0,0,0,0,0,0,0,0,0,0,0,0,0,0,0,0,0,0,0,0,0,0,0,0,0,0,0,0,0,0,0,0,0,0,0,0,0,0,0,0,0,0,0,0,0,0,0,0,0,0,0,0],"id":15,"left_children":[1,3,5,7,9,11,13,15,17,19,21,23,25,27,29,31,33,35,37,39,41,43,45,47,49,51,53,55,57,59,61,-1,63,65,67,69,71,73,75,77,79,81,83,85,87,89,91,93,95,97,99,101,103,105,107,109,111,113,115,-1,117,119,121,-1,-1,-1,-1,-1,-1,-1,-1,-1,-1,-1,-1,-1,-1,-1,-1,-1,-1,-1,-1,-1,-1,-1,-1,-1,-1,-1,-1,-1,-1,-1,-1,-1,-1,-1,-1,-1,-1,-1,-1,-1,-1,-1,-1,-1,-1,-1,-1,-1,-1,-1,-1,-1,-1,-1,-1,-1,-1,-1,-1],"loss_changes":[8.372053E6,1.2564115E6,1.479637E6,1.7257475E5,2.464875E5,3.122225E5,4.09701E5,2.454875E4,3.5166125E4,4.636225E4,6.395167E4,3.5484484E4,3.7441125E4,4.112125E4,5.12305E4,5.8375E3,9.42E3,1.4236375E4,1.25440625E4,1.5991625E4,2.8948906E4,2.8883828E4,1.4077131E4,4.3319117E4,9.362984E3,1.7866531E4,2.3114375E4,1.154475E4,1.0073375E4,7.03925E3,1.4540375E4,0E0,1.560375E3,4.05425E3,9.351328E2,8.796375E3,3.4741719E3,8.42475E3,9.2952734E2,9.958125E3,8.418667E3,2.2596438E4,4.124827E3,1.8979953E4,2.0388059E4,1.8149219E4,2.0671572E3,1.6316833E4,5.1209594E4,4.6876562E3,4.4055312E3,1.3655531E4,4.190703E3,1.34024375E4,1.5424125E4,1.0422E4,2.774711E3,7.073125E3,5.9525E3,0E0,2.538625E3,1.158625E3,2.2093125E3,0E0,0E0,0E0,0E0,0E0,0E0,0E0,0E0,0E0,0E0,0E0,0E0,0E0,0E0,0E0,0E0,0E0,0E0,0E0,0E0,0E0,0E0,0E0,0E0,0E0,0E0,0E0,0E0,0E0,0E0,0E0,0E0,0E0,0E0,0E0,0E0,0E0,0E0,0E0,0E0,0E0,0E0,0E0,0E0,0E0,0E0,0E0,0E0,0E0,0E0,0E0,0E0,0E0,0E0,0E0,0E0,0E0,0E0,0E0,0E0],"parents":[2147483647,0,0,1,1,2,2,3,3,4,4,5,5,6,6,7,7,8,8,9,9,10,10,11,11,12,12,13,13,14,14,15,15,16,16,17,17,18,18,19,19,20,20,21,21,22,22,23,23,24,24,25,25,26,26,27,27,28,28,29,29,30,30,32,32,33,33,34,34,35,35,36,36,37,37,38,38,39,39,40,40,41,41,42,42,43,43,44,44,45,45,46,46,47,47,48,48,49,49,50,50,51,51,52,52,53,53,54,54,55,55,56,56,57,57,58,58,60,60,61,61,62,62],"right_children":[2,4,6,8,10,12,14,16,18,20,22,24,26,28,30,32,34,36,38,40,42,44,46,48,50,52,54,56,58,60,62,-1,64,66,68,70,72,74,76,78,80,82,84,86,88,90,92,94,96,98,100,102,104,106,108,110,112,114,116,-1,118,120,122,-1,-1,-1,-1,-1,-1,-1,-1,-1,-1,-1,-1,-1,-1,-1,-1,-1,-1,-1,-1,-1,-1,-1,-1,-1,-1,-1,-1,-1,-1,-1,-1,-1,-1,-1,-1,-1,-1,-1,-1,-1,-1,-1,-1,-1,-1,-1,-1,-1,-1,-1,-1,-1,-1,-1,-1,-1,-1,-1,-1],"split_conditions":[5.2122E2,4.1269E2,6.8661E2,3.5046E2,4.7007E2,